digraph Tree {
node [shape=box] ;
0 [label="new_tests <= 101544.5\nmse = 10284565.511\nsamples = 5172\nvalue = 925.246"] ;
1 [label="new_tests <= 17212.5\nmse = 1050537.255\nsamples = 5013\nvalue = 456.37"] ;
0 -> 1 [labeldistance=2.5, labelangle=45, headlabel="True"] ;
2 [label="new_tests <= 8783.5\nmse = 394105.913\nsamples = 4494\nvalue = 277.462"] ;
1 -> 2 ;
3 [label="new_tests <= 2562.5\nmse = 223567.411\nsamples = 3896\nvalue = 188.682"] ;
2 -> 3 ;
4 [label="new_tests <= 1279.5\nmse = 65580.141\nsamples = 2506\nvalue = 77.595"] ;
3 -> 4 ;
5 [label="new_tests <= 675.0\nmse = 7669.407\nsamples = 1722\nvalue = 34.873"] ;
4 -> 5 ;
6 [label="new_tests <= 319.5\nmse = 3330.328\nsamples = 1084\nvalue = 19.304"] ;
5 -> 6 ;
7 [label="new_tests <= 1.5\nmse = 3451.234\nsamples = 678\nvalue = 11.004"] ;
6 -> 7 ;
8 [label="population <= 56737936.0\nmse = 107298.299\nsamples = 19\nvalue = 77.263"] ;
7 -> 8 ;
9 [label="population_density <= 73.361\nmse = 0.052\nsamples = 18\nvalue = 0.056"] ;
8 -> 9 ;
10 [label="mse = 0.0\nsamples = 1\nvalue = 1.0"] ;
9 -> 10 ;
11 [label="mse = 0.0\nsamples = 17\nvalue = 0.0"] ;
9 -> 11 ;
12 [label="mse = 0.0\nsamples = 1\nvalue = 1467.0"] ;
8 -> 12 ;
13 [label="population <= 192790856.0\nmse = 326.935\nsamples = 659\nvalue = 9.094"] ;
7 -> 13 ;
14 [label="new_tests <= 113.5\nmse = 205.792\nsamples = 645\nvalue = 8.0"] ;
13 -> 14 ;
15 [label="mse = 26.464\nsamples = 348\nvalue = 2.914"] ;
14 -> 15 ;
16 [label="mse = 350.086\nsamples = 297\nvalue = 13.96"] ;
14 -> 16 ;
17 [label="new_tests <= 20.5\nmse = 3312.25\nsamples = 14\nvalue = 59.5"] ;
13 -> 17 ;
18 [label="mse = 0.0\nsamples = 1\nvalue = 156.0"] ;
17 -> 18 ;
19 [label="mse = 2795.609\nsamples = 13\nvalue = 52.077"] ;
17 -> 19 ;
20 [label="population <= 192790856.0\nmse = 2821.328\nsamples = 406\nvalue = 33.163"] ;
6 -> 20 ;
21 [label="population_density <= 12.332\nmse = 2524.735\nsamples = 398\nvalue = 30.741"] ;
20 -> 21 ;
22 [label="median_age <= 28.0\nmse = 8299.015\nsamples = 29\nvalue = 66.138"] ;
21 -> 22 ;
23 [label="mse = 8335.802\nsamples = 9\nvalue = 172.556"] ;
22 -> 23 ;
24 [label="mse = 893.088\nsamples = 20\nvalue = 18.25"] ;
22 -> 24 ;
25 [label="new_tests <= 328.5\nmse = 1964.722\nsamples = 369\nvalue = 27.959"] ;
21 -> 25 ;
26 [label="mse = 9796.667\nsamples = 9\nvalue = 83.667"] ;
25 -> 26 ;
27 [label="mse = 1689.401\nsamples = 360\nvalue = 26.567"] ;
25 -> 27 ;
28 [label="new_tests <= 328.0\nmse = 2773.984\nsamples = 8\nvalue = 153.625"] ;
20 -> 28 ;
29 [label="mse = 0.0\nsamples = 1\nvalue = 104.0"] ;
28 -> 29 ;
30 [label="new_tests <= 372.5\nmse = 2768.204\nsamples = 7\nvalue = 160.714"] ;
28 -> 30 ;
31 [label="mse = 132.25\nsamples = 2\nvalue = 207.5"] ;
30 -> 31 ;
32 [label="mse = 2596.8\nsamples = 5\nvalue = 142.0"] ;
30 -> 32 ;
33 [label="median_age <= 30.25\nmse = 13930.048\nsamples = 638\nvalue = 61.328"] ;
5 -> 33 ;
34 [label="population_density <= 13.673\nmse = 28477.561\nsamples = 244\nvalue = 109.16"] ;
33 -> 34 ;
35 [label="new_tests <= 1104.0\nmse = 53372.515\nsamples = 19\nvalue = 384.895"] ;
34 -> 35 ;
36 [label="new_tests <= 777.0\nmse = 46767.982\nsamples = 15\nvalue = 331.867"] ;
35 -> 36 ;
37 [label="mse = 82995.76\nsamples = 5\nvalue = 484.2"] ;
36 -> 37 ;
38 [label="mse = 11250.01\nsamples = 10\nvalue = 255.7"] ;
36 -> 38 ;
39 [label="new_tests <= 1248.0\nmse = 28051.188\nsamples = 4\nvalue = 583.75"] ;
35 -> 39 ;
40 [label="mse = 11854.889\nsamples = 3\nvalue = 663.667"] ;
39 -> 40 ;
41 [label="mse = 0.0\nsamples = 1\nvalue = 344.0"] ;
39 -> 41 ;
42 [label="median_age <= 28.65\nmse = 19412.873\nsamples = 225\nvalue = 85.876"] ;
34 -> 42 ;
43 [label="median_age <= 19.15\nmse = 2766.669\nsamples = 156\nvalue = 42.295"] ;
42 -> 43 ;
44 [label="mse = 2695.339\nsamples = 54\nvalue = 86.352"] ;
43 -> 44 ;
45 [label="mse = 1232.813\nsamples = 102\nvalue = 18.971"] ;
43 -> 45 ;
46 [label="population_density <= 60.788\nmse = 43045.545\nsamples = 69\nvalue = 184.406"] ;
42 -> 46 ;
47 [label="mse = 57975.605\nsamples = 41\nvalue = 235.829"] ;
46 -> 47 ;
48 [label="mse = 11641.667\nsamples = 28\nvalue = 109.107"] ;
46 -> 48 ;
49 [label="population <= 5257678.0\nmse = 2626.578\nsamples = 394\nvalue = 31.706"] ;
33 -> 49 ;
50 [label="population <= 583259.0\nmse = 493.767\nsamples = 247\nvalue = 18.794"] ;
49 -> 50 ;
51 [label="new_tests <= 982.5\nmse = 932.099\nsamples = 27\nvalue = 34.111"] ;
50 -> 51 ;
52 [label="mse = 703.357\nsamples = 22\nvalue = 27.227"] ;
51 -> 52 ;
53 [label="mse = 812.64\nsamples = 5\nvalue = 64.4"] ;
51 -> 53 ;
54 [label="population_density <= 52.469\nmse = 407.643\nsamples = 220\nvalue = 16.914"] ;
50 -> 54 ;
55 [label="mse = 264.23\nsamples = 103\nvalue = 12.476"] ;
54 -> 55 ;
56 [label="mse = 501.293\nsamples = 117\nvalue = 20.821"] ;
54 -> 56 ;
57 [label="new_tests <= 676.5\nmse = 5459.438\nsamples = 147\nvalue = 53.401"] ;
49 -> 57 ;
58 [label="mse = 0.0\nsamples = 1\nvalue = 252.0"] ;
57 -> 58 ;
59 [label="new_tests <= 1019.0\nmse = 5224.834\nsamples = 146\nvalue = 52.041"] ;
57 -> 59 ;
60 [label="mse = 1610.141\nsamples = 77\nvalue = 38.429"] ;
59 -> 60 ;
61 [label="mse = 8821.077\nsamples = 69\nvalue = 67.232"] ;
59 -> 61 ;
62 [label="population_density <= 28.081\nmse = 179963.416\nsamples = 784\nvalue = 171.429"] ;
4 -> 62 ;
63 [label="population_density <= 24.705\nmse = 728281.039\nsamples = 152\nvalue = 409.382"] ;
62 -> 63 ;
64 [label="median_age <= 25.95\nmse = 74082.873\nsamples = 132\nvalue = 167.258"] ;
63 -> 64 ;
65 [label="new_tests <= 1301.5\nmse = 19695.389\nsamples = 12\nvalue = 691.667"] ;
64 -> 65 ;
66 [label="new_tests <= 1290.0\nmse = 132.25\nsamples = 2\nvalue = 471.5"] ;
65 -> 66 ;
67 [label="mse = 0.0\nsamples = 1\nvalue = 483.0"] ;
66 -> 67 ;
68 [label="mse = 0.0\nsamples = 1\nvalue = 460.0"] ;
66 -> 68 ;
69 [label="new_tests <= 1303.5\nmse = 11974.41\nsamples = 10\nvalue = 735.7"] ;
65 -> 69 ;
70 [label="mse = 0.0\nsamples = 1\nvalue = 913.0"] ;
69 -> 70 ;
71 [label="mse = 9424.0\nsamples = 9\nvalue = 716.0"] ;
69 -> 71 ;
72 [label="population <= 18946458.0\nmse = 49271.083\nsamples = 120\nvalue = 114.817"] ;
64 -> 72 ;
73 [label="new_tests <= 2342.0\nmse = 21950.048\nsamples = 96\nvalue = 83.812"] ;
72 -> 73 ;
74 [label="mse = 5217.75\nsamples = 78\nvalue = 60.385"] ;
73 -> 74 ;
75 [label="mse = 81771.778\nsamples = 18\nvalue = 185.333"] ;
73 -> 75 ;
76 [label="median_age <= 40.5\nmse = 139330.056\nsamples = 24\nvalue = 238.833"] ;
72 -> 76 ;
77 [label="mse = 5326.835\nsamples = 22\nvalue = 129.273"] ;
76 -> 77 ;
78 [label="mse = 28900.0\nsamples = 2\nvalue = 1444.0"] ;
76 -> 78 ;
79 [label="new_tests <= 1990.0\nmse = 2105407.44\nsamples = 20\nvalue = 2007.4"] ;
63 -> 79 ;
80 [label="new_tests <= 1550.5\nmse = 2095513.728\nsamples = 18\nvalue = 1855.222"] ;
79 -> 80 ;
81 [label="new_tests <= 1434.0\nmse = 3004706.531\nsamples = 7\nvalue = 2336.571"] ;
80 -> 81 ;
82 [label="mse = 1544693.36\nsamples = 5\nvalue = 1601.8"] ;
81 -> 82 ;
83 [label="mse = 1930710.25\nsamples = 2\nvalue = 4173.5"] ;
81 -> 83 ;
84 [label="new_tests <= 1591.5\nmse = 1275665.174\nsamples = 11\nvalue = 1548.909"] ;
80 -> 84 ;
85 [label="mse = 152100.0\nsamples = 2\nvalue = 541.0"] ;
84 -> 85 ;
86 [label="mse = 1249428.099\nsamples = 9\nvalue = 1772.889"] ;
84 -> 86 ;
87 [label="new_tests <= 2160.5\nmse = 110224.0\nsamples = 2\nvalue = 3377.0"] ;
79 -> 87 ;
88 [label="mse = 0.0\nsamples = 1\nvalue = 3709.0"] ;
87 -> 88 ;
89 [label="mse = 0.0\nsamples = 1\nvalue = 3045.0"] ;
87 -> 89 ;
90 [label="population <= 121948168.0\nmse = 31196.514\nsamples = 632\nvalue = 114.199"] ;
62 -> 90 ;
91 [label="population <= 2801675.5\nmse = 24226.317\nsamples = 573\nvalue = 91.799"] ;
90 -> 91 ;
92 [label="median_age <= 43.7\nmse = 402.386\nsamples = 94\nvalue = 14.777"] ;
91 -> 92 ;
93 [label="new_tests <= 1340.0\nmse = 616.032\nsamples = 50\nvalue = 20.26"] ;
92 -> 93 ;
94 [label="mse = 2577.25\nsamples = 4\nvalue = 37.5"] ;
93 -> 94 ;
95 [label="mse = 417.399\nsamples = 46\nvalue = 18.761"] ;
93 -> 95 ;
96 [label="new_tests <= 1390.5\nmse = 86.612\nsamples = 44\nvalue = 8.545"] ;
92 -> 96 ;
97 [label="mse = 199.322\nsamples = 11\nvalue = 15.636"] ;
96 -> 97 ;
98 [label="mse = 26.694\nsamples = 33\nvalue = 6.182"] ;
96 -> 98 ;
99 [label="population <= 4887205.5\nmse = 27508.905\nsamples = 479\nvalue = 106.914"] ;
91 -> 99 ;
100 [label="population <= 4187915.5\nmse = 63446.975\nsamples = 46\nvalue = 329.739"] ;
99 -> 100 ;
101 [label="mse = 39973.151\nsamples = 22\nvalue = 181.591"] ;
100 -> 101 ;
102 [label="mse = 46403.415\nsamples = 24\nvalue = 465.542"] ;
100 -> 102 ;
103 [label="median_age <= 47.05\nmse = 17855.957\nsamples = 433\nvalue = 83.242"] ;
99 -> 103 ;
104 [label="mse = 16834.529\nsamples = 429\nvalue = 80.601"] ;
103 -> 104 ;
105 [label="mse = 46421.25\nsamples = 4\nvalue = 366.5"] ;
103 -> 105 ;
106 [label="new_tests <= 1995.0\nmse = 46690.63\nsamples = 59\nvalue = 331.746"] ;
90 -> 106 ;
107 [label="population_density <= 352.996\nmse = 28939.507\nsamples = 43\nvalue = 274.07"] ;
106 -> 107 ;
108 [label="new_tests <= 1888.5\nmse = 28499.252\nsamples = 37\nvalue = 299.135"] ;
107 -> 108 ;
109 [label="mse = 18155.223\nsamples = 30\nvalue = 278.9"] ;
108 -> 109 ;
110 [label="mse = 63555.265\nsamples = 7\nvalue = 385.857"] ;
108 -> 110 ;
111 [label="new_tests <= 1455.0\nmse = 3888.25\nsamples = 6\nvalue = 119.5"] ;
107 -> 111 ;
112 [label="mse = 409.556\nsamples = 3\nvalue = 62.333"] ;
111 -> 112 ;
113 [label="mse = 830.889\nsamples = 3\nvalue = 176.667"] ;
111 -> 113 ;
114 [label="population <= 146811064.0\nmse = 61430.438\nsamples = 16\nvalue = 486.75"] ;
106 -> 114 ;
115 [label="new_tests <= 2155.0\nmse = 199362.25\nsamples = 2\nvalue = 792.5"] ;
114 -> 115 ;
116 [label="mse = 0.0\nsamples = 1\nvalue = 1239.0"] ;
115 -> 116 ;
117 [label="mse = 0.0\nsamples = 1\nvalue = 346.0"] ;
115 -> 117 ;
118 [label="new_tests <= 2472.0\nmse = 26463.352\nsamples = 14\nvalue = 443.071"] ;
114 -> 118 ;
119 [label="mse = 11721.49\nsamples = 10\nvalue = 364.1"] ;
118 -> 119 ;
120 [label="mse = 8748.75\nsamples = 4\nvalue = 640.5"] ;
118 -> 120 ;
121 [label="median_age <= 32.05\nmse = 446040.0\nsamples = 1390\nvalue = 388.959"] ;
3 -> 121 ;
122 [label="population_density <= 73.262\nmse = 946490.096\nsamples = 493\nvalue = 677.927"] ;
121 -> 122 ;
123 [label="median_age <= 29.5\nmse = 2296056.896\nsamples = 129\nvalue = 1360.426"] ;
122 -> 123 ;
124 [label="median_age <= 28.2\nmse = 3191473.076\nsamples = 73\nvalue = 1895.726"] ;
123 -> 124 ;
125 [label="new_tests <= 6818.0\nmse = 5308.507\nsamples = 23\nvalue = 121.435"] ;
124 -> 125 ;
126 [label="new_tests <= 3604.0\nmse = 3315.356\nsamples = 17\nvalue = 92.765"] ;
125 -> 126 ;
127 [label="mse = 3683.01\nsamples = 10\nvalue = 104.7"] ;
126 -> 127 ;
128 [label="mse = 2295.918\nsamples = 7\nvalue = 75.714"] ;
126 -> 128 ;
129 [label="new_tests <= 8340.0\nmse = 2028.222\nsamples = 6\nvalue = 202.667"] ;
125 -> 129 ;
130 [label="mse = 1440.56\nsamples = 5\nvalue = 189.8"] ;
129 -> 130 ;
131 [label="mse = 0.0\nsamples = 1\nvalue = 267.0"] ;
129 -> 131 ;
132 [label="population_density <= 45.786\nmse = 2542838.49\nsamples = 50\nvalue = 2711.9"] ;
124 -> 132 ;
133 [label="new_tests <= 3663.5\nmse = 2926807.349\nsamples = 17\nvalue = 4031.941"] ;
132 -> 133 ;
134 [label="mse = 1453058.109\nsamples = 8\nvalue = 4844.125"] ;
133 -> 134 ;
135 [label="mse = 3129258.667\nsamples = 9\nvalue = 3310.0"] ;
133 -> 135 ;
136 [label="new_tests <= 3569.0\nmse = 984951.5\nsamples = 33\nvalue = 2031.879"] ;
132 -> 136 ;
137 [label="mse = 615053.322\nsamples = 11\nvalue = 1496.636"] ;
136 -> 137 ;
138 [label="mse = 955037.25\nsamples = 22\nvalue = 2299.5"] ;
136 -> 138 ;
139 [label="population_density <= 10.83\nmse = 268358.377\nsamples = 56\nvalue = 662.625"] ;
123 -> 139 ;
140 [label="new_tests <= 8678.5\nmse = 4135.188\nsamples = 12\nvalue = 91.25"] ;
139 -> 140 ;
141 [label="new_tests <= 3623.0\nmse = 3016.81\nsamples = 11\nvalue = 80.091"] ;
140 -> 141 ;
142 [label="mse = 8.222\nsamples = 3\nvalue = 39.667"] ;
141 -> 142 ;
143 [label="mse = 3302.438\nsamples = 8\nvalue = 95.25"] ;
141 -> 143 ;
144 [label="mse = 0.0\nsamples = 1\nvalue = 214.0"] ;
140 -> 144 ;
145 [label="new_tests <= 5410.5\nmse = 227099.293\nsamples = 44\nvalue = 818.455"] ;
139 -> 145 ;
146 [label="new_tests <= 2895.0\nmse = 123762.987\nsamples = 34\nvalue = 640.206"] ;
145 -> 146 ;
147 [label="mse = 92248.768\nsamples = 17\nvalue = 433.235"] ;
146 -> 147 ;
148 [label="mse = 69603.557\nsamples = 17\nvalue = 847.176"] ;
146 -> 148 ;
149 [label="new_tests <= 7069.5\nmse = 103124.85\nsamples = 10\nvalue = 1424.5"] ;
145 -> 149 ;
150 [label="mse = 50316.222\nsamples = 9\nvalue = 1344.333"] ;
149 -> 150 ;
151 [label="mse = 0.0\nsamples = 1\nvalue = 2146.0"] ;
149 -> 151 ;
152 [label="median_age <= 31.75\nmse = 244626.758\nsamples = 364\nvalue = 436.052"] ;
122 -> 152 ;
153 [label="population <= 139826480.0\nmse = 118443.704\nsamples = 312\nvalue = 298.801"] ;
152 -> 153 ;
154 [label="median_age <= 31.1\nmse = 48840.986\nsamples = 224\nvalue = 174.777"] ;
153 -> 154 ;
155 [label="population_density <= 282.816\nmse = 27819.053\nsamples = 217\nvalue = 157.664"] ;
154 -> 155 ;
156 [label="mse = 13226.926\nsamples = 144\nvalue = 117.16"] ;
155 -> 156 ;
157 [label="mse = 46983.643\nsamples = 73\nvalue = 237.562"] ;
155 -> 157 ;
158 [label="new_tests <= 7409.5\nmse = 410002.49\nsamples = 7\nvalue = 705.286"] ;
154 -> 158 ;
159 [label="mse = 16343.84\nsamples = 5\nvalue = 334.4"] ;
158 -> 159 ;
160 [label="mse = 190532.25\nsamples = 2\nvalue = 1632.5"] ;
158 -> 160 ;
161 [label="new_tests <= 6558.0\nmse = 156794.205\nsamples = 88\nvalue = 614.5"] ;
153 -> 161 ;
162 [label="new_tests <= 4889.5\nmse = 78555.125\nsamples = 63\nvalue = 474.619"] ;
161 -> 162 ;
163 [label="mse = 29768.549\nsamples = 38\nvalue = 379.763"] ;
162 -> 163 ;
164 [label="mse = 118246.16\nsamples = 25\nvalue = 618.8"] ;
162 -> 164 ;
165 [label="population_density <= 232.58\nmse = 180392.4\nsamples = 25\nvalue = 967.0"] ;
161 -> 165 ;
166 [label="mse = 113509.188\nsamples = 12\nvalue = 704.75"] ;
165 -> 166 ;
167 [label="mse = 120044.84\nsamples = 13\nvalue = 1209.077"] ;
165 -> 167 ;
168 [label="new_tests <= 3824.0\nmse = 210536.901\nsamples = 52\nvalue = 1259.558"] ;
152 -> 168 ;
169 [label="new_tests <= 3432.5\nmse = 103837.534\nsamples = 18\nvalue = 823.722"] ;
168 -> 169 ;
170 [label="new_tests <= 3318.0\nmse = 93999.576\nsamples = 12\nvalue = 928.583"] ;
169 -> 170 ;
171 [label="mse = 41790.16\nsamples = 10\nvalue = 848.2"] ;
170 -> 171 ;
172 [label="mse = 161202.25\nsamples = 2\nvalue = 1330.5"] ;
170 -> 172 ;
173 [label="new_tests <= 3621.0\nmse = 57538.333\nsamples = 6\nvalue = 614.0"] ;
169 -> 173 ;
174 [label="mse = 12321.0\nsamples = 2\nvalue = 719.0"] ;
173 -> 174 ;
175 [label="mse = 71878.25\nsamples = 4\nvalue = 561.5"] ;
173 -> 175 ;
176 [label="new_tests <= 4980.0\nmse = 113222.384\nsamples = 34\nvalue = 1490.294"] ;
168 -> 176 ;
177 [label="new_tests <= 3945.0\nmse = 125418.16\nsamples = 25\nvalue = 1445.8"] ;
176 -> 177 ;
178 [label="mse = 38674.8\nsamples = 5\nvalue = 1604.0"] ;
177 -> 178 ;
179 [label="mse = 139282.987\nsamples = 20\nvalue = 1406.25"] ;
177 -> 179 ;
180 [label="new_tests <= 5126.0\nmse = 58570.321\nsamples = 9\nvalue = 1613.889"] ;
176 -> 180 ;
181 [label="mse = 0.0\nsamples = 1\nvalue = 1993.0"] ;
180 -> 181 ;
182 [label="mse = 45680.25\nsamples = 8\nvalue = 1566.5"] ;
180 -> 182 ;
183 [label="population_density <= 171.517\nmse = 99870.249\nsamples = 897\nvalue = 230.139"] ;
121 -> 183 ;
184 [label="population <= 15467413.0\nmse = 49966.355\nsamples = 655\nvalue = 172.099"] ;
183 -> 184 ;
185 [label="median_age <= 45.75\nmse = 35714.537\nsamples = 501\nvalue = 118.387"] ;
184 -> 185 ;
186 [label="population <= 5666460.5\nmse = 31203.034\nsamples = 487\nvalue = 107.386"] ;
185 -> 186 ;
187 [label="population_density <= 18.171\nmse = 3513.465\nsamples = 196\nvalue = 41.673"] ;
186 -> 187 ;
188 [label="mse = 5192.009\nsamples = 81\nvalue = 80.123"] ;
187 -> 188 ;
189 [label="mse = 556.433\nsamples = 115\nvalue = 14.591"] ;
187 -> 189 ;
190 [label="population_density <= 56.019\nmse = 44985.665\nsamples = 291\nvalue = 151.646"] ;
186 -> 190 ;
191 [label="mse = 133014.802\nsamples = 18\nvalue = 617.444"] ;
190 -> 191 ;
192 [label="mse = 23932.728\nsamples = 273\nvalue = 120.934"] ;
190 -> 192 ;
193 [label="new_tests <= 6629.5\nmse = 41993.209\nsamples = 14\nvalue = 501.071"] ;
185 -> 193 ;
194 [label="new_tests <= 5259.5\nmse = 39598.359\nsamples = 8\nvalue = 426.125"] ;
193 -> 194 ;
195 [label="mse = 46531.688\nsamples = 4\nvalue = 549.25"] ;
194 -> 195 ;
196 [label="mse = 2345.5\nsamples = 4\nvalue = 303.0"] ;
194 -> 196 ;
197 [label="new_tests <= 7919.5\nmse = 27711.333\nsamples = 6\nvalue = 601.0"] ;
193 -> 197 ;
198 [label="mse = 24498.16\nsamples = 5\nvalue = 562.8"] ;
197 -> 198 ;
199 [label="mse = 0.0\nsamples = 1\nvalue = 792.0"] ;
197 -> 199 ;
200 [label="population <= 19176945.0\nmse = 56411.967\nsamples = 154\nvalue = 346.838"] ;
184 -> 200 ;
201 [label="new_tests <= 6684.5\nmse = 80565.41\nsamples = 23\nvalue = 524.261"] ;
200 -> 201 ;
202 [label="new_tests <= 3306.0\nmse = 6251.003\nsamples = 17\nvalue = 410.765"] ;
201 -> 202 ;
203 [label="mse = 113.556\nsamples = 3\nvalue = 299.667"] ;
202 -> 203 ;
204 [label="mse = 4354.531\nsamples = 14\nvalue = 434.571"] ;
202 -> 204 ;
205 [label="new_tests <= 6881.5\nmse = 151216.806\nsamples = 6\nvalue = 845.833"] ;
201 -> 205 ;
206 [label="mse = 0.0\nsamples = 1\nvalue = 1427.0"] ;
205 -> 206 ;
207 [label="mse = 100399.04\nsamples = 5\nvalue = 729.6"] ;
205 -> 207 ;
208 [label="population <= 98408674.0\nmse = 45674.078\nsamples = 131\nvalue = 315.687"] ;
200 -> 208 ;
209 [label="population_density <= 3.62\nmse = 42890.369\nsamples = 117\nvalue = 340.085"] ;
208 -> 209 ;
210 [label="mse = 700.472\nsamples = 6\nvalue = 48.167"] ;
209 -> 210 ;
211 [label="mse = 40315.612\nsamples = 111\nvalue = 355.865"] ;
209 -> 211 ;
212 [label="population <= 238468560.0\nmse = 22387.311\nsamples = 14\nvalue = 111.786"] ;
208 -> 212 ;
213 [label="mse = 2267.44\nsamples = 10\nvalue = 29.6"] ;
212 -> 213 ;
214 [label="mse = 13585.188\nsamples = 4\nvalue = 317.25"] ;
212 -> 214 ;
215 [label="population_density <= 451.765\nmse = 201145.153\nsamples = 242\nvalue = 387.231"] ;
183 -> 215 ;
216 [label="population_density <= 231.788\nmse = 250910.782\nsamples = 159\nvalue = 502.283"] ;
215 -> 216 ;
217 [label="new_tests <= 6506.0\nmse = 184962.92\nsamples = 89\nvalue = 333.663"] ;
216 -> 217 ;
218 [label="population_density <= 210.051\nmse = 139728.001\nsamples = 77\nvalue = 260.377"] ;
217 -> 218 ;
219 [label="mse = 206465.0\nsamples = 6\nvalue = 642.0"] ;
218 -> 219 ;
220 [label="mse = 120740.899\nsamples = 71\nvalue = 228.127"] ;
218 -> 220 ;
221 [label="population_density <= 222.845\nmse = 219618.576\nsamples = 12\nvalue = 803.917"] ;
217 -> 221 ;
222 [label="mse = 110930.24\nsamples = 10\nvalue = 963.4"] ;
221 -> 222 ;
223 [label="mse = 12.25\nsamples = 2\nvalue = 6.5"] ;
221 -> 223 ;
224 [label="population <= 54464100.0\nmse = 252646.192\nsamples = 70\nvalue = 716.671"] ;
216 -> 224 ;
225 [label="new_tests <= 7013.0\nmse = 211715.192\nsamples = 62\nvalue = 808.339"] ;
224 -> 225 ;
226 [label="mse = 195351.321\nsamples = 53\nvalue = 861.0"] ;
225 -> 226 ;
227 [label="mse = 195576.84\nsamples = 9\nvalue = 498.222"] ;
225 -> 227 ;
228 [label="new_tests <= 5481.0\nmse = 40.438\nsamples = 8\nvalue = 6.25"] ;
224 -> 228 ;
229 [label="mse = 12.333\nsamples = 6\nvalue = 4.0"] ;
228 -> 229 ;
230 [label="mse = 64.0\nsamples = 2\nvalue = 13.0"] ;
228 -> 230 ;
231 [label="median_age <= 37.9\nmse = 31877.417\nsamples = 83\nvalue = 166.831"] ;
215 -> 231 ;
232 [label="new_tests <= 6909.5\nmse = 35765.524\nsamples = 50\nvalue = 241.58"] ;
231 -> 232 ;
233 [label="new_tests <= 4520.0\nmse = 25660.703\nsamples = 37\nvalue = 187.0"] ;
232 -> 233 ;
234 [label="mse = 20484.776\nsamples = 19\nvalue = 130.474"] ;
233 -> 234 ;
235 [label="mse = 24191.333\nsamples = 18\nvalue = 246.667"] ;
233 -> 235 ;
236 [label="new_tests <= 7837.5\nmse = 31915.302\nsamples = 13\nvalue = 396.923"] ;
232 -> 236 ;
237 [label="mse = 21118.521\nsamples = 12\nvalue = 364.75"] ;
236 -> 237 ;
238 [label="mse = 0.0\nsamples = 1\nvalue = 783.0"] ;
236 -> 238 ;
239 [label="new_tests <= 3186.0\nmse = 4693.82\nsamples = 33\nvalue = 53.576"] ;
231 -> 239 ;
240 [label="new_tests <= 2833.5\nmse = 8190.25\nsamples = 2\nvalue = 165.5"] ;
239 -> 240 ;
241 [label="mse = 0.0\nsamples = 1\nvalue = 75.0"] ;
240 -> 241 ;
242 [label="mse = 0.0\nsamples = 1\nvalue = 256.0"] ;
240 -> 242 ;
243 [label="new_tests <= 8047.0\nmse = 3607.906\nsamples = 31\nvalue = 46.355"] ;
239 -> 243 ;
244 [label="mse = 2142.861\nsamples = 28\nvalue = 37.821"] ;
243 -> 244 ;
245 [label="mse = 10258.667\nsamples = 3\nvalue = 126.0"] ;
243 -> 245 ;
246 [label="population <= 59885258.0\nmse = 1119272.378\nsamples = 598\nvalue = 855.865"] ;
2 -> 246 ;
247 [label="population_density <= 45.489\nmse = 761688.267\nsamples = 460\nvalue = 590.739"] ;
246 -> 247 ;
248 [label="population_density <= 11.001\nmse = 1806066.468\nsamples = 115\nvalue = 1452.835"] ;
247 -> 248 ;
249 [label="population <= 31621018.0\nmse = 252087.781\nsamples = 51\nvalue = 385.059"] ;
248 -> 249 ;
250 [label="population <= 22138294.0\nmse = 12850.142\nsamples = 37\nvalue = 121.514"] ;
249 -> 250 ;
251 [label="new_tests <= 11683.5\nmse = 11287.151\nsamples = 22\nvalue = 184.591"] ;
250 -> 251 ;
252 [label="new_tests <= 10869.0\nmse = 1141.44\nsamples = 5\nvalue = 83.4"] ;
251 -> 252 ;
253 [label="mse = 316.75\nsamples = 4\nvalue = 68.5"] ;
252 -> 253 ;
254 [label="mse = 0.0\nsamples = 1\nvalue = 143.0"] ;
252 -> 254 ;
255 [label="new_tests <= 14788.5\nmse = 10373.758\nsamples = 17\nvalue = 214.353"] ;
251 -> 255 ;
256 [label="mse = 5068.444\nsamples = 9\nvalue = 180.0"] ;
255 -> 256 ;
257 [label="mse = 13521.0\nsamples = 8\nvalue = 253.0"] ;
255 -> 257 ;
258 [label="new_tests <= 11146.5\nmse = 748.267\nsamples = 15\nvalue = 29.0"] ;
250 -> 258 ;
259 [label="new_tests <= 10752.0\nmse = 955.556\nsamples = 3\nvalue = 69.333"] ;
258 -> 259 ;
260 [label="mse = 900.0\nsamples = 2\nvalue = 56.0"] ;
259 -> 260 ;
261 [label="mse = 0.0\nsamples = 1\nvalue = 96.0"] ;
259 -> 261 ;
262 [label="new_tests <= 15924.5\nmse = 188.076\nsamples = 12\nvalue = 18.917"] ;
258 -> 262 ;
263 [label="mse = 179.21\nsamples = 10\nvalue = 21.7"] ;
262 -> 263 ;
264 [label="mse = 0.0\nsamples = 2\nvalue = 5.0"] ;
262 -> 264 ;
265 [label="new_tests <= 12415.5\nmse = 215666.245\nsamples = 14\nvalue = 1081.571"] ;
249 -> 265 ;
266 [label="new_tests <= 11852.5\nmse = 260972.75\nsamples = 8\nvalue = 969.0"] ;
265 -> 266 ;
267 [label="new_tests <= 10179.0\nmse = 181954.816\nsamples = 7\nvalue = 1089.571"] ;
266 -> 267 ;
268 [label="mse = 197642.188\nsamples = 4\nvalue = 898.75"] ;
267 -> 268 ;
269 [label="mse = 47754.0\nsamples = 3\nvalue = 1344.0"] ;
267 -> 269 ;
270 [label="mse = 0.0\nsamples = 1\nvalue = 125.0"] ;
266 -> 270 ;
271 [label="new_tests <= 13385.0\nmse = 115832.556\nsamples = 6\nvalue = 1231.667"] ;
265 -> 271 ;
272 [label="new_tests <= 12987.5\nmse = 78680.25\nsamples = 2\nvalue = 1510.5"] ;
271 -> 272 ;
273 [label="mse = 0.0\nsamples = 1\nvalue = 1230.0"] ;
272 -> 273 ;
274 [label="mse = 0.0\nsamples = 1\nvalue = 1791.0"] ;
272 -> 274 ;
275 [label="new_tests <= 13934.5\nmse = 76097.688\nsamples = 4\nvalue = 1092.25"] ;
271 -> 275 ;
276 [label="mse = 0.0\nsamples = 1\nvalue = 657.0"] ;
275 -> 276 ;
277 [label="mse = 17266.889\nsamples = 3\nvalue = 1237.333"] ;
275 -> 277 ;
278 [label="population <= 33892857.0\nmse = 1411836.265\nsamples = 64\nvalue = 2303.719"] ;
248 -> 278 ;
279 [label="new_tests <= 12293.5\nmse = 1716606.463\nsamples = 26\nvalue = 3175.192"] ;
278 -> 279 ;
280 [label="new_tests <= 11805.0\nmse = 509063.265\nsamples = 7\nvalue = 1909.857"] ;
279 -> 280 ;
281 [label="population_density <= 24.705\nmse = 426686.96\nsamples = 5\nvalue = 2189.2"] ;
280 -> 281 ;
282 [label="mse = 362326.188\nsamples = 4\nvalue = 2004.25"] ;
281 -> 282 ;
283 [label="mse = 0.0\nsamples = 1\nvalue = 2929.0"] ;
281 -> 283 ;
284 [label="new_tests <= 12030.5\nmse = 32220.25\nsamples = 2\nvalue = 1211.5"] ;
280 -> 284 ;
285 [label="mse = 0.0\nsamples = 1\nvalue = 1391.0"] ;
284 -> 285 ;
286 [label="mse = 0.0\nsamples = 1\nvalue = 1032.0"] ;
284 -> 286 ;
287 [label="new_tests <= 13385.5\nmse = 1354301.601\nsamples = 19\nvalue = 3641.368"] ;
279 -> 287 ;
288 [label="new_tests <= 13127.5\nmse = 2341832.889\nsamples = 6\nvalue = 3034.667"] ;
287 -> 288 ;
289 [label="mse = 2299424.188\nsamples = 4\nvalue = 3668.75"] ;
288 -> 289 ;
290 [label="mse = 14280.25\nsamples = 2\nvalue = 1766.5"] ;
288 -> 290 ;
291 [label="new_tests <= 14028.5\nmse = 650222.544\nsamples = 13\nvalue = 3921.385"] ;
287 -> 291 ;
292 [label="mse = 567762.25\nsamples = 2\nvalue = 4717.5"] ;
291 -> 292 ;
293 [label="mse = 529026.959\nsamples = 11\nvalue = 3776.636"] ;
291 -> 293 ;
294 [label="new_tests <= 12384.0\nmse = 328134.984\nsamples = 38\nvalue = 1707.447"] ;
278 -> 294 ;
295 [label="new_tests <= 12032.5\nmse = 189038.639\nsamples = 12\nvalue = 1224.167"] ;
294 -> 295 ;
296 [label="new_tests <= 11620.5\nmse = 250886.56\nsamples = 5\nvalue = 982.2"] ;
295 -> 296 ;
297 [label="mse = 12134.188\nsamples = 4\nvalue = 1227.75"] ;
296 -> 297 ;
298 [label="mse = 0.0\nsamples = 1\nvalue = 0.0"] ;
296 -> 298 ;
299 [label="new_tests <= 12292.5\nmse = 73170.286\nsamples = 7\nvalue = 1397.0"] ;
295 -> 299 ;
300 [label="mse = 58021.583\nsamples = 6\nvalue = 1459.5"] ;
299 -> 300 ;
301 [label="mse = 0.0\nsamples = 1\nvalue = 1022.0"] ;
299 -> 301 ;
302 [label="new_tests <= 12522.5\nmse = 234783.788\nsamples = 26\nvalue = 1930.5"] ;
294 -> 302 ;
303 [label="new_tests <= 12441.5\nmse = 276676.0\nsamples = 2\nvalue = 2650.0"] ;
302 -> 303 ;
304 [label="mse = 0.0\nsamples = 1\nvalue = 2124.0"] ;
303 -> 304 ;
305 [label="mse = 0.0\nsamples = 1\nvalue = 3176.0"] ;
303 -> 305 ;
306 [label="new_tests <= 14156.0\nmse = 184557.748\nsamples = 24\nvalue = 1870.542"] ;
302 -> 306 ;
307 [label="mse = 223742.556\nsamples = 6\nvalue = 1511.667"] ;
306 -> 307 ;
308 [label="mse = 114255.583\nsamples = 18\nvalue = 1990.167"] ;
306 -> 308 ;
309 [label="population_density <= 78.735\nmse = 83247.127\nsamples = 345\nvalue = 303.374"] ;
247 -> 309 ;
310 [label="population <= 26591540.5\nmse = 77404.849\nsamples = 53\nvalue = 670.434"] ;
309 -> 310 ;
311 [label="new_tests <= 11152.5\nmse = 3492.616\nsamples = 17\nvalue = 901.176"] ;
310 -> 311 ;
312 [label="new_tests <= 10574.5\nmse = 4316.61\nsamples = 10\nvalue = 879.3"] ;
311 -> 312 ;
313 [label="new_tests <= 9769.5\nmse = 1369.551\nsamples = 7\nvalue = 899.143"] ;
312 -> 313 ;
314 [label="mse = 784.25\nsamples = 4\nvalue = 873.5"] ;
313 -> 314 ;
315 [label="mse = 104.222\nsamples = 3\nvalue = 933.333"] ;
313 -> 315 ;
316 [label="new_tests <= 10656.0\nmse = 8130.667\nsamples = 3\nvalue = 833.0"] ;
312 -> 316 ;
317 [label="mse = 0.0\nsamples = 1\nvalue = 707.0"] ;
316 -> 317 ;
318 [label="mse = 289.0\nsamples = 2\nvalue = 896.0"] ;
316 -> 318 ;
319 [label="new_tests <= 12109.5\nmse = 655.102\nsamples = 7\nvalue = 932.429"] ;
311 -> 319 ;
320 [label="new_tests <= 11698.5\nmse = 145.188\nsamples = 4\nvalue = 950.75"] ;
319 -> 320 ;
321 [label="mse = 0.0\nsamples = 1\nvalue = 933.0"] ;
320 -> 321 ;
322 [label="mse = 53.556\nsamples = 3\nvalue = 956.667"] ;
320 -> 322 ;
323 [label="new_tests <= 15074.0\nmse = 290.667\nsamples = 3\nvalue = 908.0"] ;
319 -> 323 ;
324 [label="mse = 4.0\nsamples = 2\nvalue = 896.0"] ;
323 -> 324 ;
325 [label="mse = 0.0\nsamples = 1\nvalue = 932.0"] ;
323 -> 325 ;
326 [label="new_tests <= 12848.0\nmse = 75293.083\nsamples = 36\nvalue = 561.472"] ;
310 -> 326 ;
327 [label="median_age <= 34.35\nmse = 58610.333\nsamples = 26\nvalue = 491.115"] ;
326 -> 327 ;
328 [label="new_tests <= 9505.0\nmse = 54098.84\nsamples = 10\nvalue = 384.6"] ;
327 -> 328 ;
329 [label="mse = 127449.0\nsamples = 2\nvalue = 675.0"] ;
328 -> 329 ;
330 [label="mse = 9407.5\nsamples = 8\nvalue = 312.0"] ;
328 -> 330 ;
331 [label="new_tests <= 10851.5\nmse = 49907.215\nsamples = 16\nvalue = 557.688"] ;
327 -> 331 ;
332 [label="mse = 44551.076\nsamples = 12\nvalue = 495.583"] ;
331 -> 332 ;
333 [label="mse = 19692.5\nsamples = 4\nvalue = 744.0"] ;
331 -> 333 ;
334 [label="new_tests <= 14464.5\nmse = 72335.44\nsamples = 10\nvalue = 744.4"] ;
326 -> 334 ;
335 [label="new_tests <= 13230.0\nmse = 55296.688\nsamples = 4\nvalue = 988.75"] ;
334 -> 335 ;
336 [label="mse = 0.0\nsamples = 1\nvalue = 1240.0"] ;
335 -> 336 ;
337 [label="mse = 45672.667\nsamples = 3\nvalue = 905.0"] ;
335 -> 337 ;
338 [label="new_tests <= 15963.0\nmse = 17353.583\nsamples = 6\nvalue = 581.5"] ;
334 -> 338 ;
339 [label="mse = 8318.0\nsamples = 3\nvalue = 468.0"] ;
338 -> 339 ;
340 [label="mse = 624.667\nsamples = 3\nvalue = 695.0"] ;
338 -> 340 ;
341 [label="median_age <= 45.75\nmse = 55413.818\nsamples = 292\nvalue = 236.75"] ;
309 -> 341 ;
342 [label="population <= 3746893.0\nmse = 45438.438\nsamples = 246\nvalue = 204.699"] ;
341 -> 342 ;
343 [label="new_tests <= 8955.5\nmse = 72740.25\nsamples = 4\nvalue = 679.5"] ;
342 -> 343 ;
344 [label="mse = 0.0\nsamples = 1\nvalue = 481.0"] ;
343 -> 344 ;
345 [label="new_tests <= 10270.5\nmse = 79474.889\nsamples = 3\nvalue = 745.667"] ;
343 -> 345 ;
346 [label="mse = 0.0\nsamples = 1\nvalue = 1069.0"] ;
345 -> 346 ;
347 [label="mse = 40804.0\nsamples = 2\nvalue = 584.0"] ;
345 -> 347 ;
348 [label="median_age <= 42.05\nmse = 41199.366\nsamples = 242\nvalue = 196.851"] ;
342 -> 348 ;
349 [label="median_age <= 36.2\nmse = 54343.273\nsamples = 134\nvalue = 245.052"] ;
348 -> 349 ;
350 [label="mse = 24234.177\nsamples = 71\nvalue = 145.859"] ;
349 -> 350 ;
351 [label="mse = 64690.261\nsamples = 63\nvalue = 356.841"] ;
349 -> 351 ;
352 [label="population <= 18186277.0\nmse = 18431.896\nsamples = 108\nvalue = 137.046"] ;
348 -> 352 ;
353 [label="mse = 5655.007\nsamples = 42\nvalue = 83.429"] ;
352 -> 353 ;
354 [label="mse = 23568.987\nsamples = 66\nvalue = 171.167"] ;
352 -> 354 ;
355 [label="new_tests <= 10017.5\nmse = 73888.129\nsamples = 46\nvalue = 408.152"] ;
341 -> 355 ;
356 [label="new_tests <= 9000.0\nmse = 128610.122\nsamples = 7\nvalue = 778.143"] ;
355 -> 356 ;
357 [label="new_tests <= 8916.0\nmse = 34410.25\nsamples = 2\nvalue = 412.5"] ;
356 -> 357 ;
358 [label="mse = 0.0\nsamples = 1\nvalue = 598.0"] ;
357 -> 358 ;
359 [label="mse = 0.0\nsamples = 1\nvalue = 227.0"] ;
357 -> 359 ;
360 [label="new_tests <= 9179.0\nmse = 91421.04\nsamples = 5\nvalue = 924.4"] ;
356 -> 360 ;
361 [label="mse = 110224.0\nsamples = 2\nvalue = 1184.0"] ;
360 -> 361 ;
362 [label="mse = 4005.556\nsamples = 3\nvalue = 751.333"] ;
360 -> 362 ;
363 [label="new_tests <= 15442.0\nmse = 35085.575\nsamples = 39\nvalue = 341.744"] ;
355 -> 363 ;
364 [label="new_tests <= 13089.5\nmse = 37574.559\nsamples = 29\nvalue = 380.69"] ;
363 -> 364 ;
365 [label="mse = 22112.09\nsamples = 16\nvalue = 315.312"] ;
364 -> 365 ;
366 [label="mse = 44870.284\nsamples = 13\nvalue = 461.154"] ;
364 -> 366 ;
367 [label="new_tests <= 16247.0\nmse = 10712.56\nsamples = 10\nvalue = 228.8"] ;
363 -> 367 ;
368 [label="mse = 9564.8\nsamples = 5\nvalue = 171.0"] ;
367 -> 368 ;
369 [label="mse = 5178.64\nsamples = 5\nvalue = 286.6"] ;
367 -> 369 ;
370 [label="median_age <= 26.35\nmse = 1295897.932\nsamples = 138\nvalue = 1739.616"] ;
246 -> 370 ;
371 [label="median_age <= 24.35\nmse = 722719.535\nsamples = 46\nvalue = 1119.174"] ;
370 -> 371 ;
372 [label="new_tests <= 16092.0\nmse = 617520.75\nsamples = 24\nvalue = 1709.5"] ;
371 -> 372 ;
373 [label="new_tests <= 11829.5\nmse = 419059.282\nsamples = 23\nvalue = 1612.609"] ;
372 -> 373 ;
374 [label="new_tests <= 9851.5\nmse = 169002.938\nsamples = 8\nvalue = 1162.25"] ;
373 -> 374 ;
375 [label="new_tests <= 9648.0\nmse = 138760.667\nsamples = 3\nvalue = 774.0"] ;
374 -> 375 ;
376 [label="mse = 2209.0\nsamples = 2\nvalue = 1036.0"] ;
375 -> 376 ;
377 [label="mse = 0.0\nsamples = 1\nvalue = 250.0"] ;
375 -> 377 ;
378 [label="new_tests <= 10503.0\nmse = 42439.76\nsamples = 5\nvalue = 1395.2"] ;
374 -> 378 ;
379 [label="mse = 46872.25\nsamples = 2\nvalue = 1531.5"] ;
378 -> 379 ;
380 [label="mse = 18842.889\nsamples = 3\nvalue = 1304.333"] ;
378 -> 380 ;
381 [label="new_tests <= 12108.0\nmse = 386558.56\nsamples = 15\nvalue = 1852.8"] ;
373 -> 381 ;
382 [label="new_tests <= 11975.5\nmse = 34596.0\nsamples = 2\nvalue = 2615.0"] ;
381 -> 382 ;
383 [label="mse = 0.0\nsamples = 1\nvalue = 2801.0"] ;
382 -> 383 ;
384 [label="mse = 0.0\nsamples = 1\nvalue = 2429.0"] ;
382 -> 384 ;
385 [label="new_tests <= 13271.5\nmse = 337579.633\nsamples = 13\nvalue = 1735.538"] ;
381 -> 385 ;
386 [label="mse = 331413.84\nsamples = 5\nvalue = 1366.4"] ;
385 -> 386 ;
387 [label="mse = 203040.938\nsamples = 8\nvalue = 1966.25"] ;
385 -> 387 ;
388 [label="mse = 0.0\nsamples = 1\nvalue = 3938.0"] ;
372 -> 388 ;
389 [label="new_tests <= 9336.5\nmse = 42590.694\nsamples = 22\nvalue = 475.182"] ;
371 -> 389 ;
390 [label="new_tests <= 8986.0\nmse = 23940.688\nsamples = 4\nvalue = 349.25"] ;
389 -> 390 ;
391 [label="mse = 0.0\nsamples = 1\nvalue = 590.0"] ;
390 -> 391 ;
392 [label="new_tests <= 9189.0\nmse = 6160.667\nsamples = 3\nvalue = 269.0"] ;
390 -> 392 ;
393 [label="new_tests <= 9047.0\nmse = 0.25\nsamples = 2\nvalue = 213.5"] ;
392 -> 393 ;
394 [label="mse = 0.0\nsamples = 1\nvalue = 213.0"] ;
393 -> 394 ;
395 [label="mse = 0.0\nsamples = 1\nvalue = 214.0"] ;
393 -> 395 ;
396 [label="mse = 0.0\nsamples = 1\nvalue = 380.0"] ;
392 -> 396 ;
397 [label="new_tests <= 9440.0\nmse = 42427.806\nsamples = 18\nvalue = 503.167"] ;
389 -> 397 ;
398 [label="mse = 0.0\nsamples = 1\nvalue = 1046.0"] ;
397 -> 398 ;
399 [label="new_tests <= 9553.0\nmse = 26570.533\nsamples = 17\nvalue = 471.235"] ;
397 -> 399 ;
400 [label="mse = 0.0\nsamples = 1\nvalue = 215.0"] ;
399 -> 400 ;
401 [label="new_tests <= 10417.5\nmse = 23871.188\nsamples = 16\nvalue = 487.25"] ;
399 -> 401 ;
402 [label="mse = 11106.5\nsamples = 4\nvalue = 641.0"] ;
401 -> 402 ;
403 [label="mse = 17619.833\nsamples = 12\nvalue = 436.0"] ;
401 -> 403 ;
404 [label="population <= 219106496.0\nmse = 1293775.897\nsamples = 92\nvalue = 2049.837"] ;
370 -> 404 ;
405 [label="population_density <= 58.138\nmse = 1161630.753\nsamples = 77\nvalue = 2296.026"] ;
404 -> 405 ;
406 [label="population_density <= 29.327\nmse = 309891.541\nsamples = 29\nvalue = 1465.103"] ;
405 -> 406 ;
407 [label="new_tests <= 11372.0\nmse = 110.25\nsamples = 2\nvalue = 43.5"] ;
406 -> 407 ;
408 [label="mse = 0.0\nsamples = 1\nvalue = 33.0"] ;
407 -> 408 ;
409 [label="mse = 0.0\nsamples = 1\nvalue = 54.0"] ;
407 -> 409 ;
410 [label="new_tests <= 13114.0\nmse = 172048.908\nsamples = 27\nvalue = 1570.407"] ;
406 -> 410 ;
411 [label="new_tests <= 9326.5\nmse = 111121.793\nsamples = 18\nvalue = 1378.389"] ;
410 -> 411 ;
412 [label="mse = 0.0\nsamples = 1\nvalue = 1972.0"] ;
411 -> 412 ;
413 [label="mse = 95711.19\nsamples = 17\nvalue = 1343.471"] ;
411 -> 413 ;
414 [label="new_tests <= 14172.5\nmse = 72676.469\nsamples = 9\nvalue = 1954.444"] ;
410 -> 414 ;
415 [label="mse = 66310.889\nsamples = 3\nvalue = 1755.667"] ;
414 -> 415 ;
416 [label="mse = 46224.806\nsamples = 6\nvalue = 2053.833"] ;
414 -> 416 ;
417 [label="population_density <= 85.679\nmse = 1007067.29\nsamples = 48\nvalue = 2798.042"] ;
405 -> 417 ;
418 [label="new_tests <= 9969.0\nmse = 454818.864\nsamples = 13\nvalue = 3752.462"] ;
417 -> 418 ;
419 [label="new_tests <= 9566.0\nmse = 139217.673\nsamples = 7\nvalue = 3262.429"] ;
418 -> 419 ;
420 [label="mse = 102706.56\nsamples = 5\nvalue = 3158.8"] ;
419 -> 420 ;
421 [label="mse = 136530.25\nsamples = 2\nvalue = 3521.5"] ;
419 -> 421 ;
422 [label="new_tests <= 10723.0\nmse = 216019.139\nsamples = 6\nvalue = 4324.167"] ;
418 -> 422 ;
423 [label="mse = 89811.76\nsamples = 5\nvalue = 4492.2"] ;
422 -> 423 ;
424 [label="mse = 0.0\nsamples = 1\nvalue = 3484.0"] ;
422 -> 424 ;
425 [label="new_tests <= 12390.0\nmse = 748178.02\nsamples = 35\nvalue = 2443.543"] ;
417 -> 425 ;
426 [label="new_tests <= 12169.5\nmse = 825487.751\nsamples = 17\nvalue = 1972.118"] ;
425 -> 426 ;
427 [label="mse = 620379.5\nsamples = 16\nvalue = 2095.0"] ;
426 -> 427 ;
428 [label="mse = 0.0\nsamples = 1\nvalue = 6.0"] ;
426 -> 428 ;
429 [label="new_tests <= 15503.5\nmse = 267034.173\nsamples = 18\nvalue = 2888.778"] ;
425 -> 429 ;
430 [label="mse = 130799.36\nsamples = 10\nvalue = 2577.8"] ;
429 -> 430 ;
431 [label="mse = 165338.75\nsamples = 8\nvalue = 3277.5"] ;
429 -> 431 ;
432 [label="population <= 302263136.0\nmse = 63879.262\nsamples = 15\nvalue = 786.067"] ;
404 -> 432 ;
433 [label="new_tests <= 11323.5\nmse = 20832.571\nsamples = 7\nvalue = 978.0"] ;
432 -> 433 ;
434 [label="new_tests <= 10754.5\nmse = 6804.667\nsamples = 6\nvalue = 1028.0"] ;
433 -> 434 ;
435 [label="new_tests <= 9974.5\nmse = 6512.24\nsamples = 5\nvalue = 1011.4"] ;
434 -> 435 ;
436 [label="mse = 1056.25\nsamples = 2\nvalue = 1073.5"] ;
435 -> 436 ;
437 [label="mse = 5864.667\nsamples = 3\nvalue = 970.0"] ;
435 -> 437 ;
438 [label="mse = 0.0\nsamples = 1\nvalue = 1111.0"] ;
434 -> 438 ;
439 [label="mse = 0.0\nsamples = 1\nvalue = 678.0"] ;
433 -> 439 ;
440 [label="new_tests <= 13620.5\nmse = 41107.109\nsamples = 8\nvalue = 618.125"] ;
432 -> 440 ;
441 [label="new_tests <= 9527.0\nmse = 18316.56\nsamples = 5\nvalue = 494.2"] ;
440 -> 441 ;
442 [label="mse = 0.0\nsamples = 1\nvalue = 351.0"] ;
441 -> 442 ;
443 [label="new_tests <= 12240.5\nmse = 16487.5\nsamples = 4\nvalue = 530.0"] ;
441 -> 443 ;
444 [label="mse = 8216.222\nsamples = 3\nvalue = 588.667"] ;
443 -> 444 ;
445 [label="mse = 0.0\nsamples = 1\nvalue = 354.0"] ;
443 -> 445 ;
446 [label="new_tests <= 16397.0\nmse = 10836.222\nsamples = 3\nvalue = 824.667"] ;
440 -> 446 ;
447 [label="population <= 855503504.0\nmse = 121.0\nsamples = 2\nvalue = 898.0"] ;
446 -> 447 ;
448 [label="mse = 0.0\nsamples = 1\nvalue = 887.0"] ;
447 -> 448 ;
449 [label="mse = 0.0\nsamples = 1\nvalue = 909.0"] ;
447 -> 449 ;
450 [label="mse = 0.0\nsamples = 1\nvalue = 678.0"] ;
446 -> 450 ;
451 [label="population <= 155311920.0\nmse = 4057483.324\nsamples = 519\nvalue = 2005.534"] ;
1 -> 451 ;
452 [label="population_density <= 12.072\nmse = 2608229.996\nsamples = 464\nvalue = 1721.004"] ;
451 -> 452 ;
453 [label="population <= 31621018.0\nmse = 537961.224\nsamples = 135\nvalue = 650.281"] ;
452 -> 453 ;
454 [label="population_density <= 4.942\nmse = 25186.201\nsamples = 64\nvalue = 144.047"] ;
453 -> 454 ;
455 [label="new_tests <= 34578.0\nmse = 46.065\nsamples = 35\nvalue = 13.143"] ;
454 -> 455 ;
456 [label="new_tests <= 20053.0\nmse = 42.23\nsamples = 28\nvalue = 11.643"] ;
455 -> 456 ;
457 [label="new_tests <= 19318.0\nmse = 7.25\nsamples = 4\nvalue = 7.5"] ;
456 -> 457 ;
458 [label="new_tests <= 18441.5\nmse = 1.0\nsamples = 2\nvalue = 9.0"] ;
457 -> 458 ;
459 [label="mse = 0.0\nsamples = 1\nvalue = 10.0"] ;
458 -> 459 ;
460 [label="mse = 0.0\nsamples = 1\nvalue = 8.0"] ;
458 -> 460 ;
461 [label="new_tests <= 19656.5\nmse = 9.0\nsamples = 2\nvalue = 6.0"] ;
457 -> 461 ;
462 [label="mse = 0.0\nsamples = 1\nvalue = 3.0"] ;
461 -> 462 ;
463 [label="mse = 0.0\nsamples = 1\nvalue = 9.0"] ;
461 -> 463 ;
464 [label="new_tests <= 32930.5\nmse = 44.722\nsamples = 24\nvalue = 12.333"] ;
456 -> 464 ;
465 [label="new_tests <= 30093.0\nmse = 45.81\nsamples = 20\nvalue = 13.3"] ;
464 -> 465 ;
466 [label="mse = 35.929\nsamples = 13\nvalue = 11.615"] ;
465 -> 466 ;
467 [label="mse = 49.102\nsamples = 7\nvalue = 16.429"] ;
465 -> 467 ;
468 [label="new_tests <= 33313.5\nmse = 11.25\nsamples = 4\nvalue = 7.5"] ;
464 -> 468 ;
469 [label="mse = 0.0\nsamples = 1\nvalue = 2.0"] ;
468 -> 469 ;
470 [label="mse = 1.556\nsamples = 3\nvalue = 9.333"] ;
468 -> 470 ;
471 [label="new_tests <= 37076.0\nmse = 16.408\nsamples = 7\nvalue = 19.143"] ;
455 -> 471 ;
472 [label="new_tests <= 35559.5\nmse = 14.0\nsamples = 3\nvalue = 22.0"] ;
471 -> 472 ;
473 [label="new_tests <= 34937.0\nmse = 2.25\nsamples = 2\nvalue = 19.5"] ;
472 -> 473 ;
474 [label="mse = 0.0\nsamples = 1\nvalue = 21.0"] ;
473 -> 474 ;
475 [label="mse = 0.0\nsamples = 1\nvalue = 18.0"] ;
473 -> 475 ;
476 [label="mse = 0.0\nsamples = 1\nvalue = 27.0"] ;
472 -> 476 ;
477 [label="new_tests <= 46403.0\nmse = 7.5\nsamples = 4\nvalue = 17.0"] ;
471 -> 477 ;
478 [label="new_tests <= 41522.0\nmse = 8.222\nsamples = 3\nvalue = 17.667"] ;
477 -> 478 ;
479 [label="mse = 4.0\nsamples = 2\nvalue = 16.0"] ;
478 -> 479 ;
480 [label="mse = 0.0\nsamples = 1\nvalue = 21.0"] ;
478 -> 480 ;
481 [label="mse = 0.0\nsamples = 1\nvalue = 15.0"] ;
477 -> 481 ;
482 [label="new_tests <= 23841.0\nmse = 9886.447\nsamples = 29\nvalue = 302.034"] ;
454 -> 482 ;
483 [label="new_tests <= 23292.5\nmse = 9162.782\nsamples = 15\nvalue = 256.533"] ;
482 -> 483 ;
484 [label="new_tests <= 20871.5\nmse = 4707.835\nsamples = 11\nvalue = 272.273"] ;
483 -> 484 ;
485 [label="new_tests <= 20098.0\nmse = 2255.806\nsamples = 6\nvalue = 224.833"] ;
484 -> 485 ;
486 [label="mse = 1502.8\nsamples = 5\nvalue = 239.0"] ;
485 -> 486 ;
487 [label="mse = 0.0\nsamples = 1\nvalue = 154.0"] ;
485 -> 487 ;
488 [label="new_tests <= 21741.0\nmse = 1708.96\nsamples = 5\nvalue = 329.2"] ;
484 -> 488 ;
489 [label="mse = 0.0\nsamples = 1\nvalue = 403.0"] ;
488 -> 489 ;
490 [label="mse = 434.188\nsamples = 4\nvalue = 310.75"] ;
488 -> 490 ;
491 [label="new_tests <= 23570.0\nmse = 18859.188\nsamples = 4\nvalue = 213.25"] ;
483 -> 491 ;
492 [label="mse = 0.0\nsamples = 1\nvalue = 0.0"] ;
491 -> 492 ;
493 [label="new_tests <= 23650.0\nmse = 4934.222\nsamples = 3\nvalue = 284.333"] ;
491 -> 493 ;
494 [label="mse = 0.0\nsamples = 1\nvalue = 383.0"] ;
493 -> 494 ;
495 [label="mse = 100.0\nsamples = 2\nvalue = 235.0"] ;
493 -> 495 ;
496 [label="new_tests <= 24230.5\nmse = 6066.883\nsamples = 14\nvalue = 350.786"] ;
482 -> 496 ;
497 [label="mse = 0.0\nsamples = 1\nvalue = 507.0"] ;
496 -> 497 ;
498 [label="new_tests <= 25687.5\nmse = 4512.024\nsamples = 13\nvalue = 338.769"] ;
496 -> 498 ;
499 [label="new_tests <= 24698.5\nmse = 592.188\nsamples = 4\nvalue = 275.25"] ;
498 -> 499 ;
500 [label="mse = 0.0\nsamples = 1\nvalue = 313.0"] ;
499 -> 500 ;
501 [label="mse = 156.222\nsamples = 3\nvalue = 262.667"] ;
499 -> 501 ;
502 [label="new_tests <= 28462.0\nmse = 3664.0\nsamples = 9\nvalue = 367.0"] ;
498 -> 502 ;
503 [label="mse = 3298.806\nsamples = 6\nvalue = 343.833"] ;
502 -> 503 ;
504 [label="mse = 1174.222\nsamples = 3\nvalue = 413.333"] ;
502 -> 504 ;
505 [label="new_tests <= 88688.5\nmse = 560942.154\nsamples = 71\nvalue = 1106.606"] ;
453 -> 505 ;
506 [label="new_tests <= 30134.0\nmse = 314532.875\nsamples = 67\nvalue = 999.463"] ;
505 -> 506 ;
507 [label="median_age <= 40.5\nmse = 344225.576\nsamples = 35\nvalue = 1129.286"] ;
506 -> 507 ;
508 [label="new_tests <= 20328.5\nmse = 7928.75\nsamples = 4\nvalue = 151.5"] ;
507 -> 508 ;
509 [label="new_tests <= 20007.0\nmse = 9604.0\nsamples = 2\nvalue = 98.0"] ;
508 -> 509 ;
510 [label="mse = 0.0\nsamples = 1\nvalue = 196.0"] ;
509 -> 510 ;
511 [label="mse = 0.0\nsamples = 1\nvalue = 0.0"] ;
509 -> 511 ;
512 [label="new_tests <= 23384.5\nmse = 529.0\nsamples = 2\nvalue = 205.0"] ;
508 -> 512 ;
513 [label="mse = 0.0\nsamples = 1\nvalue = 228.0"] ;
512 -> 513 ;
514 [label="mse = 0.0\nsamples = 1\nvalue = 182.0"] ;
512 -> 514 ;
515 [label="new_tests <= 25755.0\nmse = 248337.667\nsamples = 31\nvalue = 1255.452"] ;
507 -> 515 ;
516 [label="new_tests <= 18682.0\nmse = 183575.855\nsamples = 21\nvalue = 1178.619"] ;
515 -> 516 ;
517 [label="mse = 429025.0\nsamples = 2\nvalue = 871.0"] ;
516 -> 517 ;
518 [label="mse = 146729.579\nsamples = 19\nvalue = 1211.0"] ;
516 -> 518 ;
519 [label="new_tests <= 26446.5\nmse = 345907.36\nsamples = 10\nvalue = 1416.8"] ;
515 -> 519 ;
520 [label="mse = 277848.667\nsamples = 3\nvalue = 2027.0"] ;
519 -> 520 ;
521 [label="mse = 147109.633\nsamples = 7\nvalue = 1155.286"] ;
519 -> 521 ;
522 [label="new_tests <= 65262.0\nmse = 243460.124\nsamples = 32\nvalue = 857.469"] ;
506 -> 522 ;
523 [label="new_tests <= 43578.5\nmse = 141054.64\nsamples = 29\nvalue = 798.345"] ;
522 -> 523 ;
524 [label="new_tests <= 37266.5\nmse = 115654.149\nsamples = 22\nvalue = 758.182"] ;
523 -> 524 ;
525 [label="mse = 117237.652\nsamples = 16\nvalue = 845.188"] ;
524 -> 525 ;
526 [label="mse = 37413.806\nsamples = 6\nvalue = 526.167"] ;
524 -> 526 ;
527 [label="new_tests <= 44031.0\nmse = 199881.959\nsamples = 7\nvalue = 924.571"] ;
523 -> 527 ;
528 [label="mse = 0.0\nsamples = 1\nvalue = 1649.0"] ;
527 -> 528 ;
529 [label="mse = 131151.806\nsamples = 6\nvalue = 803.833"] ;
527 -> 529 ;
530 [label="new_tests <= 72828.0\nmse = 872940.667\nsamples = 3\nvalue = 1429.0"] ;
522 -> 530 ;
531 [label="mse = 0.0\nsamples = 1\nvalue = 2558.0"] ;
530 -> 531 ;
532 [label="new_tests <= 83863.5\nmse = 353430.25\nsamples = 2\nvalue = 864.5"] ;
530 -> 532 ;
533 [label="mse = 0.0\nsamples = 1\nvalue = 270.0"] ;
532 -> 533 ;
534 [label="mse = 0.0\nsamples = 1\nvalue = 1459.0"] ;
532 -> 534 ;
535 [label="new_tests <= 90631.5\nmse = 1275265.688\nsamples = 4\nvalue = 2901.25"] ;
505 -> 535 ;
536 [label="mse = 0.0\nsamples = 1\nvalue = 4268.0"] ;
535 -> 536 ;
537 [label="new_tests <= 94959.5\nmse = 870129.556\nsamples = 3\nvalue = 2445.667"] ;
535 -> 537 ;
538 [label="new_tests <= 93238.0\nmse = 639200.25\nsamples = 2\nvalue = 1974.5"] ;
537 -> 538 ;
539 [label="mse = 0.0\nsamples = 1\nvalue = 2774.0"] ;
538 -> 539 ;
540 [label="mse = 0.0\nsamples = 1\nvalue = 1175.0"] ;
538 -> 540 ;
541 [label="mse = 0.0\nsamples = 1\nvalue = 3388.0"] ;
537 -> 541 ;
542 [label="median_age <= 41.3\nmse = 2794273.397\nsamples = 329\nvalue = 2160.359"] ;
452 -> 542 ;
543 [label="population <= 26965038.0\nmse = 2092672.86\nsamples = 191\nvalue = 2776.67"] ;
542 -> 543 ;
544 [label="population <= 13885874.5\nmse = 2806769.796\nsamples = 15\nvalue = 4854.267"] ;
543 -> 544 ;
545 [label="mse = 0.0\nsamples = 1\nvalue = 179.0"] ;
544 -> 545 ;
546 [label="new_tests <= 17646.0\nmse = 1334438.168\nsamples = 14\nvalue = 5188.214"] ;
544 -> 546 ;
547 [label="mse = 0.0\nsamples = 1\nvalue = 2353.0"] ;
546 -> 547 ;
548 [label="new_tests <= 19548.0\nmse = 771180.982\nsamples = 13\nvalue = 5406.308"] ;
546 -> 548 ;
549 [label="new_tests <= 18881.0\nmse = 800680.204\nsamples = 7\nvalue = 5172.286"] ;
548 -> 549 ;
550 [label="mse = 606144.16\nsamples = 5\nvalue = 5555.8"] ;
549 -> 550 ;
551 [label="mse = 42.25\nsamples = 2\nvalue = 4213.5"] ;
549 -> 551 ;
552 [label="new_tests <= 20285.0\nmse = 598328.222\nsamples = 6\nvalue = 5679.333"] ;
548 -> 552 ;
553 [label="mse = 320321.188\nsamples = 4\nvalue = 6088.75"] ;
552 -> 553 ;
554 [label="mse = 148610.25\nsamples = 2\nvalue = 4860.5"] ;
552 -> 554 ;
555 [label="median_age <= 31.75\nmse = 1632583.671\nsamples = 176\nvalue = 2599.602"] ;
543 -> 555 ;
556 [label="new_tests <= 18630.5\nmse = 1603939.563\nsamples = 87\nvalue = 2287.356"] ;
555 -> 556 ;
557 [label="population <= 48109624.0\nmse = 434653.556\nsamples = 3\nvalue = 805.667"] ;
556 -> 557 ;
558 [label="mse = 0.0\nsamples = 1\nvalue = 176.0"] ;
557 -> 558 ;
559 [label="new_tests <= 17437.0\nmse = 354620.25\nsamples = 2\nvalue = 1120.5"] ;
557 -> 559 ;
560 [label="mse = 0.0\nsamples = 1\nvalue = 525.0"] ;
559 -> 560 ;
561 [label="mse = 0.0\nsamples = 1\nvalue = 1716.0"] ;
559 -> 561 ;
562 [label="new_tests <= 45149.0\nmse = 1564492.223\nsamples = 84\nvalue = 2340.274"] ;
556 -> 562 ;
563 [label="new_tests <= 24800.0\nmse = 1578414.948\nsamples = 79\nvalue = 2409.038"] ;
562 -> 563 ;
564 [label="mse = 1041668.65\nsamples = 20\nvalue = 2042.5"] ;
563 -> 564 ;
565 [label="mse = 1699382.341\nsamples = 59\nvalue = 2533.288"] ;
563 -> 565 ;
566 [label="new_tests <= 47995.0\nmse = 89377.36\nsamples = 5\nvalue = 1253.8"] ;
562 -> 566 ;
567 [label="mse = 0.0\nsamples = 1\nvalue = 1592.0"] ;
566 -> 567 ;
568 [label="mse = 75978.188\nsamples = 4\nvalue = 1169.25"] ;
566 -> 568 ;
569 [label="new_tests <= 73196.0\nmse = 1472112.657\nsamples = 89\nvalue = 2904.831"] ;
555 -> 569 ;
570 [label="new_tests <= 70856.5\nmse = 1430371.154\nsamples = 82\nvalue = 3017.768"] ;
569 -> 570 ;
571 [label="population <= 75939476.0\nmse = 1334477.457\nsamples = 81\nvalue = 2980.556"] ;
570 -> 571 ;
572 [label="mse = 1688116.656\nsamples = 57\nvalue = 3182.105"] ;
571 -> 572 ;
573 [label="mse = 168971.359\nsamples = 24\nvalue = 2501.875"] ;
571 -> 573 ;
574 [label="mse = 0.0\nsamples = 1\nvalue = 6032.0"] ;
570 -> 574 ;
575 [label="new_tests <= 77428.0\nmse = 61410.98\nsamples = 7\nvalue = 1581.857"] ;
569 -> 575 ;
576 [label="new_tests <= 76710.0\nmse = 60677.04\nsamples = 5\nvalue = 1506.6"] ;
575 -> 576 ;
577 [label="mse = 47420.5\nsamples = 4\nvalue = 1582.0"] ;
576 -> 577 ;
578 [label="mse = 0.0\nsamples = 1\nvalue = 1205.0"] ;
576 -> 578 ;
579 [label="new_tests <= 78944.5\nmse = 13689.0\nsamples = 2\nvalue = 1770.0"] ;
575 -> 579 ;
580 [label="mse = 0.0\nsamples = 1\nvalue = 1887.0"] ;
579 -> 580 ;
581 [label="mse = 0.0\nsamples = 1\nvalue = 1653.0"] ;
579 -> 581 ;
582 [label="median_age <= 47.05\nmse = 2511981.343\nsamples = 138\nvalue = 1307.348"] ;
542 -> 582 ;
583 [label="new_tests <= 32548.0\nmse = 200438.82\nsamples = 62\nvalue = 440.774"] ;
582 -> 583 ;
584 [label="population <= 10893161.5\nmse = 67477.324\nsamples = 56\nvalue = 398.125"] ;
583 -> 584 ;
585 [label="median_age <= 44.25\nmse = 5126.531\nsamples = 7\nvalue = 107.571"] ;
584 -> 585 ;
586 [label="new_tests <= 17986.5\nmse = 1975.04\nsamples = 5\nvalue = 69.4"] ;
585 -> 586 ;
587 [label="mse = 1419.556\nsamples = 3\nvalue = 96.667"] ;
586 -> 587 ;
588 [label="mse = 20.25\nsamples = 2\nvalue = 28.5"] ;
586 -> 588 ;
589 [label="new_tests <= 19365.0\nmse = 256.0\nsamples = 2\nvalue = 203.0"] ;
585 -> 589 ;
590 [label="mse = 0.0\nsamples = 1\nvalue = 219.0"] ;
589 -> 590 ;
591 [label="mse = 0.0\nsamples = 1\nvalue = 187.0"] ;
589 -> 591 ;
592 [label="median_age <= 41.9\nmse = 62601.498\nsamples = 49\nvalue = 439.633"] ;
584 -> 592 ;
593 [label="new_tests <= 25365.5\nmse = 18487.09\nsamples = 32\nvalue = 397.188"] ;
592 -> 593 ;
594 [label="mse = 14976.247\nsamples = 27\nvalue = 416.222"] ;
593 -> 594 ;
595 [label="mse = 24923.84\nsamples = 5\nvalue = 294.4"] ;
593 -> 595 ;
596 [label="new_tests <= 29167.5\nmse = 135865.661\nsamples = 17\nvalue = 519.529"] ;
592 -> 596 ;
597 [label="mse = 288803.806\nsamples = 6\nvalue = 692.167"] ;
596 -> 597 ;
598 [label="mse = 27321.14\nsamples = 11\nvalue = 425.364"] ;
596 -> 598 ;
599 [label="population <= 37139956.0\nmse = 1265984.806\nsamples = 6\nvalue = 838.833"] ;
583 -> 599 ;
600 [label="mse = 0.0\nsamples = 1\nvalue = 529.0"] ;
599 -> 600 ;
601 [label="mse = 1496142.56\nsamples = 5\nvalue = 900.8"] ;
599 -> 601 ;
602 [label="new_tests <= 30832.5\nmse = 3285329.916\nsamples = 76\nvalue = 2014.289"] ;
582 -> 602 ;
603 [label="new_tests <= 26557.5\nmse = 995018.01\nsamples = 10\nvalue = 4960.3"] ;
602 -> 603 ;
604 [label="new_tests <= 24306.5\nmse = 630439.583\nsamples = 6\nvalue = 5472.5"] ;
603 -> 604 ;
605 [label="new_tests <= 19366.0\nmse = 207337.556\nsamples = 3\nvalue = 4772.667"] ;
604 -> 605 ;
606 [label="mse = 0.0\nsamples = 1\nvalue = 4207.0"] ;
605 -> 606 ;
607 [label="mse = 71022.25\nsamples = 2\nvalue = 5055.5"] ;
605 -> 607 ;
608 [label="new_tests <= 24842.0\nmse = 74008.222\nsamples = 3\nvalue = 6172.333"] ;
604 -> 608 ;
609 [label="mse = 0.0\nsamples = 1\nvalue = 5974.0"] ;
608 -> 609 ;
610 [label="mse = 81510.25\nsamples = 2\nvalue = 6271.5"] ;
608 -> 610 ;
611 [label="new_tests <= 27130.0\nmse = 558077.5\nsamples = 4\nvalue = 4192.0"] ;
603 -> 611 ;
612 [label="mse = 0.0\nsamples = 1\nvalue = 3153.0"] ;
611 -> 612 ;
613 [label="new_tests <= 28545.0\nmse = 264316.222\nsamples = 3\nvalue = 4538.333"] ;
611 -> 613 ;
614 [label="mse = 0.0\nsamples = 1\nvalue = 5249.0"] ;
613 -> 614 ;
615 [label="mse = 17689.0\nsamples = 2\nvalue = 4183.0"] ;
613 -> 615 ;
616 [label="new_tests <= 46801.0\nmse = 2118108.282\nsamples = 66\nvalue = 1567.924"] ;
602 -> 616 ;
617 [label="new_tests <= 35344.0\nmse = 4009142.087\nsamples = 14\nvalue = 2515.357"] ;
616 -> 617 ;
618 [label="new_tests <= 33317.5\nmse = 7744.0\nsamples = 2\nvalue = 443.0"] ;
617 -> 618 ;
619 [label="mse = 0.0\nsamples = 1\nvalue = 355.0"] ;
618 -> 619 ;
620 [label="mse = 0.0\nsamples = 1\nvalue = 531.0"] ;
618 -> 620 ;
621 [label="new_tests <= 35926.5\nmse = 3840968.188\nsamples = 12\nvalue = 2860.75"] ;
617 -> 621 ;
622 [label="mse = 0.0\nsamples = 1\nvalue = 5959.0"] ;
621 -> 622 ;
623 [label="mse = 3238164.992\nsamples = 11\nvalue = 2579.091"] ;
621 -> 623 ;
624 [label="new_tests <= 66830.5\nmse = 1302249.592\nsamples = 52\nvalue = 1312.846"] ;
616 -> 624 ;
625 [label="new_tests <= 65207.5\nmse = 1678823.163\nsamples = 34\nvalue = 1563.206"] ;
624 -> 625 ;
626 [label="mse = 1476715.188\nsamples = 31\nvalue = 1386.194"] ;
625 -> 626 ;
627 [label="mse = 97786.889\nsamples = 3\nvalue = 3392.333"] ;
625 -> 627 ;
628 [label="new_tests <= 74794.0\nmse = 248912.386\nsamples = 18\nvalue = 839.944"] ;
624 -> 628 ;
629 [label="mse = 260039.36\nsamples = 15\nvalue = 912.2"] ;
628 -> 629 ;
630 [label="mse = 36651.556\nsamples = 3\nvalue = 478.667"] ;
628 -> 630 ;
631 [label="population_density <= 352.996\nmse = 9839039.631\nsamples = 55\nvalue = 4405.927"] ;
451 -> 631 ;
632 [label="new_tests <= 85888.5\nmse = 13005953.639\nsamples = 24\nvalue = 6048.833"] ;
631 -> 632 ;
633 [label="new_tests <= 38473.5\nmse = 4767669.883\nsamples = 23\nvalue = 5443.174"] ;
632 -> 633 ;
634 [label="median_age <= 30.9\nmse = 2258681.418\nsamples = 19\nvalue = 4715.053"] ;
633 -> 634 ;
635 [label="new_tests <= 29320.0\nmse = 718682.371\nsamples = 16\nvalue = 5250.562"] ;
634 -> 635 ;
636 [label="new_tests <= 25794.0\nmse = 347902.139\nsamples = 12\nvalue = 4895.833"] ;
635 -> 636 ;
637 [label="new_tests <= 24199.0\nmse = 213658.286\nsamples = 7\nvalue = 4562.0"] ;
636 -> 637 ;
638 [label="mse = 247246.188\nsamples = 4\nvalue = 4724.75"] ;
637 -> 638 ;
639 [label="mse = 86468.667\nsamples = 3\nvalue = 4345.0"] ;
637 -> 639 ;
640 [label="new_tests <= 28486.0\nmse = 161389.36\nsamples = 5\nvalue = 5363.2"] ;
636 -> 640 ;
641 [label="mse = 6.25\nsamples = 2\nvalue = 5836.5"] ;
640 -> 641 ;
642 [label="mse = 20074.889\nsamples = 3\nvalue = 5047.667"] ;
640 -> 642 ;
643 [label="new_tests <= 30540.0\nmse = 321029.688\nsamples = 4\nvalue = 6314.75"] ;
635 -> 643 ;
644 [label="new_tests <= 29698.0\nmse = 31152.25\nsamples = 2\nvalue = 6648.5"] ;
643 -> 644 ;
645 [label="mse = 0.0\nsamples = 1\nvalue = 6825.0"] ;
644 -> 645 ;
646 [label="mse = 0.0\nsamples = 1\nvalue = 6472.0"] ;
644 -> 646 ;
647 [label="new_tests <= 31455.5\nmse = 388129.0\nsamples = 2\nvalue = 5981.0"] ;
643 -> 647 ;
648 [label="mse = 0.0\nsamples = 1\nvalue = 5358.0"] ;
647 -> 648 ;
649 [label="mse = 0.0\nsamples = 1\nvalue = 6604.0"] ;
647 -> 649 ;
650 [label="new_tests <= 26510.5\nmse = 785528.667\nsamples = 3\nvalue = 1859.0"] ;
634 -> 650 ;
651 [label="new_tests <= 21910.0\nmse = 222312.25\nsamples = 2\nvalue = 1294.5"] ;
650 -> 651 ;
652 [label="mse = 0.0\nsamples = 1\nvalue = 823.0"] ;
651 -> 652 ;
653 [label="mse = 0.0\nsamples = 1\nvalue = 1766.0"] ;
651 -> 653 ;
654 [label="mse = 0.0\nsamples = 1\nvalue = 2988.0"] ;
650 -> 654 ;
655 [label="new_tests <= 63563.5\nmse = 2205353.688\nsamples = 4\nvalue = 8901.75"] ;
633 -> 655 ;
656 [label="new_tests <= 51728.0\nmse = 446224.0\nsamples = 2\nvalue = 7791.0"] ;
655 -> 656 ;
657 [label="mse = 0.0\nsamples = 1\nvalue = 7123.0"] ;
656 -> 657 ;
658 [label="mse = 0.0\nsamples = 1\nvalue = 8459.0"] ;
656 -> 658 ;
659 [label="new_tests <= 76593.0\nmse = 1496952.25\nsamples = 2\nvalue = 10012.5"] ;
655 -> 659 ;
660 [label="mse = 0.0\nsamples = 1\nvalue = 11236.0"] ;
659 -> 660 ;
661 [label="mse = 0.0\nsamples = 1\nvalue = 8789.0"] ;
659 -> 661 ;
662 [label="mse = 0.0\nsamples = 1\nvalue = 19979.0"] ;
632 -> 662 ;
663 [label="new_tests <= 74429.5\nmse = 3679779.226\nsamples = 31\nvalue = 3134.0"] ;
631 -> 663 ;
664 [label="median_age <= 27.85\nmse = 1089023.294\nsamples = 17\nvalue = 1851.0"] ;
663 -> 664 ;
665 [label="new_tests <= 17370.5\nmse = 145542.25\nsamples = 2\nvalue = 3480.5"] ;
664 -> 665 ;
666 [label="mse = 0.0\nsamples = 1\nvalue = 3099.0"] ;
665 -> 666 ;
667 [label="mse = 0.0\nsamples = 1\nvalue = 3862.0"] ;
665 -> 667 ;
668 [label="new_tests <= 57782.5\nmse = 813579.929\nsamples = 15\nvalue = 1633.733"] ;
664 -> 668 ;
669 [label="new_tests <= 38755.0\nmse = 185122.694\nsamples = 11\nvalue = 1214.818"] ;
668 -> 669 ;
670 [label="new_tests <= 21550.0\nmse = 90773.633\nsamples = 7\nvalue = 964.286"] ;
669 -> 670 ;
671 [label="mse = 0.0\nsamples = 1\nvalue = 336.0"] ;
670 -> 671 ;
672 [label="new_tests <= 24572.5\nmse = 29147.0\nsamples = 6\nvalue = 1069.0"] ;
670 -> 672 ;
673 [label="mse = 0.0\nsamples = 1\nvalue = 796.0"] ;
672 -> 673 ;
674 [label="mse = 17089.44\nsamples = 5\nvalue = 1123.6"] ;
672 -> 674 ;
675 [label="new_tests <= 40878.5\nmse = 48169.688\nsamples = 4\nvalue = 1653.25"] ;
669 -> 675 ;
676 [label="mse = 0.0\nsamples = 1\nvalue = 1396.0"] ;
675 -> 676 ;
677 [label="new_tests <= 48133.0\nmse = 34814.0\nsamples = 3\nvalue = 1739.0"] ;
675 -> 677 ;
678 [label="mse = 23409.0\nsamples = 2\nvalue = 1837.0"] ;
677 -> 678 ;
679 [label="mse = 0.0\nsamples = 1\nvalue = 1543.0"] ;
677 -> 679 ;
680 [label="new_tests <= 67369.0\nmse = 732097.688\nsamples = 4\nvalue = 2785.75"] ;
668 -> 680 ;
681 [label="mse = 0.0\nsamples = 1\nvalue = 4213.0"] ;
680 -> 681 ;
682 [label="new_tests <= 71270.0\nmse = 70778.0\nsamples = 3\nvalue = 2310.0"] ;
680 -> 682 ;
683 [label="mse = 0.0\nsamples = 1\nvalue = 2644.0"] ;
682 -> 683 ;
684 [label="new_tests <= 73081.0\nmse = 22500.0\nsamples = 2\nvalue = 2143.0"] ;
682 -> 684 ;
685 [label="mse = 0.0\nsamples = 1\nvalue = 1993.0"] ;
684 -> 685 ;
686 [label="mse = 0.0\nsamples = 1\nvalue = 2293.0"] ;
684 -> 686 ;
687 [label="new_tests <= 97425.5\nmse = 2399733.352\nsamples = 14\nvalue = 4691.929"] ;
663 -> 687 ;
688 [label="new_tests <= 88030.5\nmse = 1542467.743\nsamples = 12\nvalue = 4360.417"] ;
687 -> 688 ;
689 [label="new_tests <= 77891.0\nmse = 626352.24\nsamples = 5\nvalue = 3728.4"] ;
688 -> 689 ;
690 [label="mse = 0.0\nsamples = 1\nvalue = 5242.0"] ;
689 -> 690 ;
691 [label="new_tests <= 85857.5\nmse = 67007.5\nsamples = 4\nvalue = 3350.0"] ;
689 -> 691 ;
692 [label="new_tests <= 82733.5\nmse = 60669.556\nsamples = 3\nvalue = 3265.333"] ;
691 -> 692 ;
693 [label="mse = 0.0\nsamples = 1\nvalue = 3561.0"] ;
692 -> 693 ;
694 [label="mse = 25440.25\nsamples = 2\nvalue = 3117.5"] ;
692 -> 694 ;
695 [label="mse = 0.0\nsamples = 1\nvalue = 3604.0"] ;
691 -> 695 ;
696 [label="new_tests <= 92659.5\nmse = 1707719.551\nsamples = 7\nvalue = 4811.857"] ;
688 -> 696 ;
697 [label="new_tests <= 91349.0\nmse = 48841.0\nsamples = 2\nvalue = 6756.0"] ;
696 -> 697 ;
698 [label="mse = 0.0\nsamples = 1\nvalue = 6977.0"] ;
697 -> 698 ;
699 [label="mse = 0.0\nsamples = 1\nvalue = 6535.0"] ;
697 -> 699 ;
700 [label="new_tests <= 94498.0\nmse = 254643.76\nsamples = 5\nvalue = 4034.2"] ;
696 -> 700 ;
701 [label="new_tests <= 93138.0\nmse = 237278.25\nsamples = 4\nvalue = 4161.5"] ;
700 -> 701 ;
702 [label="mse = 15006.25\nsamples = 2\nvalue = 3844.5"] ;
701 -> 702 ;
703 [label="mse = 258572.25\nsamples = 2\nvalue = 4478.5"] ;
701 -> 703 ;
704 [label="mse = 0.0\nsamples = 1\nvalue = 3525.0"] ;
700 -> 704 ;
705 [label="new_tests <= 100827.5\nmse = 2927521.0\nsamples = 2\nvalue = 6681.0"] ;
687 -> 705 ;
706 [label="mse = 0.0\nsamples = 1\nvalue = 8392.0"] ;
705 -> 706 ;
707 [label="mse = 0.0\nsamples = 1\nvalue = 4970.0"] ;
705 -> 707 ;
708 [label="population <= 238468560.0\nmse = 75953867.784\nsamples = 159\nvalue = 15708.094"] ;
0 -> 708 [labeldistance=2.5, labelangle=-45, headlabel="False"] ;
709 [label="new_tests <= 152432.5\nmse = 5175932.612\nsamples = 60\nvalue = 8157.767"] ;
708 -> 709 ;
710 [label="new_tests <= 135617.5\nmse = 3599264.81\nsamples = 11\nvalue = 4378.909"] ;
709 -> 710 ;
711 [label="new_tests <= 124662.0\nmse = 4183120.234\nsamples = 8\nvalue = 3974.625"] ;
710 -> 711 ;
712 [label="new_tests <= 118872.5\nmse = 2740941.673\nsamples = 7\nvalue = 4479.571"] ;
711 -> 712 ;
713 [label="new_tests <= 114285.5\nmse = 2623571.472\nsamples = 6\nvalue = 4193.167"] ;
712 -> 713 ;
714 [label="new_tests <= 104056.0\nmse = 1164317.0\nsamples = 4\nvalue = 4805.0"] ;
713 -> 714 ;
715 [label="mse = 0.0\nsamples = 1\nvalue = 6060.0"] ;
714 -> 715 ;
716 [label="new_tests <= 107270.5\nmse = 852411.556\nsamples = 3\nvalue = 4386.667"] ;
714 -> 716 ;
717 [label="mse = 0.0\nsamples = 1\nvalue = 3448.0"] ;
716 -> 717 ;
718 [label="new_tests <= 111904.0\nmse = 617796.0\nsamples = 2\nvalue = 4856.0"] ;
716 -> 718 ;
719 [label="mse = 0.0\nsamples = 1\nvalue = 5642.0"] ;
718 -> 719 ;
720 [label="mse = 0.0\nsamples = 1\nvalue = 4070.0"] ;
718 -> 720 ;
721 [label="new_tests <= 116309.5\nmse = 3296040.25\nsamples = 2\nvalue = 2969.5"] ;
713 -> 721 ;
722 [label="mse = 0.0\nsamples = 1\nvalue = 1154.0"] ;
721 -> 722 ;
723 [label="mse = 0.0\nsamples = 1\nvalue = 4785.0"] ;
721 -> 723 ;
724 [label="mse = 0.0\nsamples = 1\nvalue = 6198.0"] ;
712 -> 724 ;
725 [label="mse = 0.0\nsamples = 1\nvalue = 440.0"] ;
711 -> 725 ;
726 [label="new_tests <= 145406.0\nmse = 444182.0\nsamples = 3\nvalue = 5457.0"] ;
710 -> 726 ;
727 [label="mse = 0.0\nsamples = 1\nvalue = 6361.0"] ;
726 -> 727 ;
728 [label="new_tests <= 149730.5\nmse = 53361.0\nsamples = 2\nvalue = 5005.0"] ;
726 -> 728 ;
729 [label="mse = 0.0\nsamples = 1\nvalue = 5236.0"] ;
728 -> 729 ;
730 [label="mse = 0.0\nsamples = 1\nvalue = 4774.0"] ;
728 -> 730 ;
731 [label="new_tests <= 283432.5\nmse = 1604578.728\nsamples = 49\nvalue = 9006.082"] ;
709 -> 731 ;
732 [label="new_tests <= 166550.0\nmse = 2118824.499\nsamples = 32\nvalue = 9303.531"] ;
731 -> 732 ;
733 [label="new_tests <= 160786.5\nmse = 3968344.188\nsamples = 4\nvalue = 8145.25"] ;
732 -> 733 ;
734 [label="new_tests <= 156656.5\nmse = 3954404.222\nsamples = 3\nvalue = 8723.333"] ;
733 -> 734 ;
735 [label="new_tests <= 155340.0\nmse = 3343412.25\nsamples = 2\nvalue = 7794.5"] ;
734 -> 735 ;
736 [label="mse = 0.0\nsamples = 1\nvalue = 9623.0"] ;
735 -> 736 ;
737 [label="mse = 0.0\nsamples = 1\nvalue = 5966.0"] ;
735 -> 737 ;
738 [label="mse = 0.0\nsamples = 1\nvalue = 10581.0"] ;
734 -> 738 ;
739 [label="mse = 0.0\nsamples = 1\nvalue = 6411.0"] ;
733 -> 739 ;
740 [label="new_tests <= 191445.5\nmse = 1635568.143\nsamples = 28\nvalue = 9469.0"] ;
732 -> 740 ;
741 [label="new_tests <= 169051.0\nmse = 132606.64\nsamples = 5\nvalue = 11071.4"] ;
740 -> 741 ;
742 [label="mse = 0.0\nsamples = 1\nvalue = 11656.0"] ;
741 -> 742 ;
743 [label="new_tests <= 173307.5\nmse = 58959.188\nsamples = 4\nvalue = 10925.25"] ;
741 -> 743 ;
744 [label="mse = 0.0\nsamples = 1\nvalue = 10559.0"] ;
743 -> 744 ;
745 [label="new_tests <= 180715.0\nmse = 18994.889\nsamples = 3\nvalue = 11047.333"] ;
743 -> 745 ;
746 [label="mse = 0.0\nsamples = 1\nvalue = 10899.0"] ;
745 -> 746 ;
747 [label="new_tests <= 186288.0\nmse = 11990.25\nsamples = 2\nvalue = 11121.5"] ;
745 -> 747 ;
748 [label="mse = 0.0\nsamples = 1\nvalue = 11231.0"] ;
747 -> 748 ;
749 [label="mse = 0.0\nsamples = 1\nvalue = 11012.0"] ;
747 -> 749 ;
750 [label="new_tests <= 198917.5\nmse = 1282760.14\nsamples = 23\nvalue = 9120.652"] ;
740 -> 750 ;
751 [label="mse = 0.0\nsamples = 1\nvalue = 5841.0"] ;
750 -> 751 ;
752 [label="new_tests <= 204273.0\nmse = 829929.562\nsamples = 22\nvalue = 9269.727"] ;
750 -> 752 ;
753 [label="mse = 0.0\nsamples = 1\nvalue = 10633.0"] ;
752 -> 753 ;
754 [label="new_tests <= 225606.0\nmse = 776735.107\nsamples = 21\nvalue = 9204.81"] ;
752 -> 754 ;
755 [label="new_tests <= 218458.5\nmse = 992428.24\nsamples = 5\nvalue = 8586.4"] ;
754 -> 755 ;
756 [label="mse = 265058.667\nsamples = 3\nvalue = 9300.0"] ;
755 -> 756 ;
757 [label="mse = 173889.0\nsamples = 2\nvalue = 7516.0"] ;
755 -> 757 ;
758 [label="new_tests <= 248897.0\nmse = 552474.809\nsamples = 16\nvalue = 9398.062"] ;
754 -> 758 ;
759 [label="mse = 709523.432\nsamples = 9\nvalue = 9702.889"] ;
758 -> 759 ;
760 [label="mse = 77486.694\nsamples = 7\nvalue = 9006.143"] ;
758 -> 760 ;
761 [label="new_tests <= 341450.0\nmse = 156549.322\nsamples = 17\nvalue = 8446.176"] ;
731 -> 761 ;
762 [label="new_tests <= 334873.5\nmse = 147146.196\nsamples = 15\nvalue = 8387.933"] ;
761 -> 762 ;
763 [label="new_tests <= 292856.0\nmse = 132374.982\nsamples = 13\nvalue = 8458.308"] ;
762 -> 763 ;
764 [label="new_tests <= 290931.5\nmse = 99296.688\nsamples = 4\nvalue = 8227.25"] ;
763 -> 764 ;
765 [label="new_tests <= 287956.5\nmse = 21617.556\nsamples = 3\nvalue = 8393.667"] ;
764 -> 765 ;
766 [label="new_tests <= 284797.5\nmse = 2025.0\nsamples = 2\nvalue = 8293.0"] ;
765 -> 766 ;
767 [label="mse = 0.0\nsamples = 1\nvalue = 8248.0"] ;
766 -> 767 ;
768 [label="mse = 0.0\nsamples = 1\nvalue = 8338.0"] ;
766 -> 768 ;
769 [label="mse = 0.0\nsamples = 1\nvalue = 8595.0"] ;
765 -> 769 ;
770 [label="mse = 0.0\nsamples = 1\nvalue = 7728.0"] ;
764 -> 770 ;
771 [label="new_tests <= 296627.5\nmse = 112802.889\nsamples = 9\nvalue = 8561.0"] ;
763 -> 771 ;
772 [label="mse = 0.0\nsamples = 1\nvalue = 8984.0"] ;
771 -> 772 ;
773 [label="new_tests <= 331424.0\nmse = 101741.359\nsamples = 8\nvalue = 8508.125"] ;
771 -> 773 ;
774 [label="new_tests <= 330030.5\nmse = 96631.388\nsamples = 7\nvalue = 8458.571"] ;
773 -> 774 ;
775 [label="mse = 25822.333\nsamples = 6\nvalue = 8570.0"] ;
774 -> 775 ;
776 [label="mse = 0.0\nsamples = 1\nvalue = 7790.0"] ;
774 -> 776 ;
777 [label="mse = 0.0\nsamples = 1\nvalue = 8855.0"] ;
773 -> 777 ;
778 [label="new_tests <= 338244.5\nmse = 1722.25\nsamples = 2\nvalue = 7930.5"] ;
762 -> 778 ;
779 [label="mse = 0.0\nsamples = 1\nvalue = 7889.0"] ;
778 -> 779 ;
780 [label="mse = 0.0\nsamples = 1\nvalue = 7972.0"] ;
778 -> 780 ;
781 [label="new_tests <= 349510.0\nmse = 10816.0\nsamples = 2\nvalue = 8883.0"] ;
761 -> 781 ;
782 [label="mse = 0.0\nsamples = 1\nvalue = 8779.0"] ;
781 -> 782 ;
783 [label="mse = 0.0\nsamples = 1\nvalue = 8987.0"] ;
781 -> 783 ;
784 [label="population_density <= 243.014\nmse = 63360242.775\nsamples = 99\nvalue = 20284.051"] ;
708 -> 784 ;
785 [label="new_tests <= 302769.5\nmse = 24593974.246\nsamples = 71\nvalue = 24418.254"] ;
784 -> 785 ;
786 [label="new_tests <= 118896.5\nmse = 26940687.118\nsamples = 35\nvalue = 26214.286"] ;
785 -> 786 ;
787 [label="new_tests <= 105148.0\nmse = 12234914.667\nsamples = 6\nvalue = 19068.0"] ;
786 -> 787 ;
788 [label="new_tests <= 102545.5\nmse = 2007889.0\nsamples = 2\nvalue = 15380.0"] ;
787 -> 788 ;
789 [label="mse = 0.0\nsamples = 1\nvalue = 13963.0"] ;
788 -> 789 ;
790 [label="mse = 0.0\nsamples = 1\nvalue = 16797.0"] ;
788 -> 790 ;
791 [label="new_tests <= 115456.5\nmse = 7147419.5\nsamples = 4\nvalue = 20912.0"] ;
787 -> 791 ;
792 [label="new_tests <= 107495.0\nmse = 6635357.556\nsamples = 3\nvalue = 21762.667"] ;
791 -> 792 ;
793 [label="mse = 0.0\nsamples = 1\nvalue = 18695.0"] ;
792 -> 793 ;
794 [label="new_tests <= 110236.5\nmse = 2895102.25\nsamples = 2\nvalue = 23296.5"] ;
792 -> 794 ;
795 [label="mse = 0.0\nsamples = 1\nvalue = 24998.0"] ;
794 -> 795 ;
796 [label="mse = 0.0\nsamples = 1\nvalue = 21595.0"] ;
794 -> 796 ;
797 [label="mse = 0.0\nsamples = 1\nvalue = 18360.0"] ;
791 -> 797 ;
798 [label="new_tests <= 178307.5\nmse = 17231092.005\nsamples = 29\nvalue = 27692.828"] ;
786 -> 798 ;
799 [label="new_tests <= 153324.0\nmse = 11387703.262\nsamples = 15\nvalue = 29751.933"] ;
798 -> 799 ;
800 [label="new_tests <= 142455.5\nmse = 12817456.6\nsamples = 10\nvalue = 28708.0"] ;
799 -> 800 ;
801 [label="new_tests <= 138466.5\nmse = 12666767.6\nsamples = 5\nvalue = 30632.0"] ;
800 -> 801 ;
802 [label="new_tests <= 125855.0\nmse = 8345639.188\nsamples = 4\nvalue = 29408.25"] ;
801 -> 802 ;
803 [label="mse = 0.0\nsamples = 1\nvalue = 34272.0"] ;
802 -> 803 ;
804 [label="mse = 613712.667\nsamples = 3\nvalue = 27787.0"] ;
802 -> 804 ;
805 [label="mse = 0.0\nsamples = 1\nvalue = 35527.0"] ;
801 -> 805 ;
806 [label="new_tests <= 146123.0\nmse = 5564593.6\nsamples = 5\nvalue = 26784.0"] ;
800 -> 806 ;
807 [label="mse = 0.0\nsamples = 1\nvalue = 24601.0"] ;
806 -> 807 ;
808 [label="new_tests <= 148844.5\nmse = 5466526.688\nsamples = 4\nvalue = 27329.75"] ;
806 -> 808 ;
809 [label="mse = 0.0\nsamples = 1\nvalue = 30833.0"] ;
808 -> 809 ;
810 [label="mse = 1834142.0\nsamples = 3\nvalue = 26162.0"] ;
808 -> 810 ;
811 [label="new_tests <= 161506.0\nmse = 1989415.76\nsamples = 5\nvalue = 31839.8"] ;
799 -> 811 ;
812 [label="new_tests <= 155862.0\nmse = 1592336.188\nsamples = 4\nvalue = 32262.75"] ;
811 -> 812 ;
813 [label="new_tests <= 154004.0\nmse = 1393580.25\nsamples = 2\nvalue = 31741.5"] ;
812 -> 813 ;
814 [label="mse = 0.0\nsamples = 1\nvalue = 32922.0"] ;
813 -> 814 ;
815 [label="mse = 0.0\nsamples = 1\nvalue = 30561.0"] ;
813 -> 815 ;
816 [label="new_tests <= 158510.5\nmse = 1247689.0\nsamples = 2\nvalue = 32784.0"] ;
812 -> 816 ;
817 [label="mse = 0.0\nsamples = 1\nvalue = 33901.0"] ;
816 -> 817 ;
818 [label="mse = 0.0\nsamples = 1\nvalue = 31667.0"] ;
816 -> 818 ;
819 [label="mse = 0.0\nsamples = 1\nvalue = 30148.0"] ;
811 -> 819 ;
820 [label="new_tests <= 194508.5\nmse = 14081846.944\nsamples = 14\nvalue = 25486.643"] ;
798 -> 820 ;
821 [label="mse = 0.0\nsamples = 1\nvalue = 17588.0"] ;
820 -> 821 ;
822 [label="new_tests <= 286625.5\nmse = 9996782.947\nsamples = 13\nvalue = 26094.231"] ;
820 -> 822 ;
823 [label="new_tests <= 237867.0\nmse = 9708185.537\nsamples = 11\nvalue = 25539.909"] ;
822 -> 823 ;
824 [label="new_tests <= 217767.0\nmse = 9742813.139\nsamples = 6\nvalue = 27234.833"] ;
823 -> 824 ;
825 [label="mse = 4656964.0\nsamples = 2\nvalue = 24699.0"] ;
824 -> 825 ;
826 [label="mse = 7462899.688\nsamples = 4\nvalue = 28502.75"] ;
824 -> 826 ;
827 [label="new_tests <= 269744.0\nmse = 2082524.4\nsamples = 5\nvalue = 23506.0"] ;
823 -> 827 ;
828 [label="mse = 601280.222\nsamples = 3\nvalue = 24528.333"] ;
827 -> 828 ;
829 [label="mse = 385020.25\nsamples = 2\nvalue = 21972.5"] ;
827 -> 829 ;
830 [label="new_tests <= 297211.5\nmse = 599076.0\nsamples = 2\nvalue = 29143.0"] ;
822 -> 830 ;
831 [label="mse = 0.0\nsamples = 1\nvalue = 29917.0"] ;
830 -> 831 ;
832 [label="mse = 0.0\nsamples = 1\nvalue = 28369.0"] ;
830 -> 832 ;
833 [label="new_tests <= 510808.0\nmse = 16127306.543\nsamples = 36\nvalue = 22672.111"] ;
785 -> 833 ;
834 [label="new_tests <= 314873.0\nmse = 13146480.028\nsamples = 33\nvalue = 22230.182"] ;
833 -> 834 ;
835 [label="new_tests <= 307685.5\nmse = 172152.667\nsamples = 3\nvalue = 18697.0"] ;
834 -> 835 ;
836 [label="mse = 0.0\nsamples = 1\nvalue = 19064.0"] ;
835 -> 836 ;
837 [label="new_tests <= 309421.5\nmse = 157212.25\nsamples = 2\nvalue = 18513.5"] ;
835 -> 837 ;
838 [label="mse = 0.0\nsamples = 1\nvalue = 18117.0"] ;
837 -> 838 ;
839 [label="mse = 0.0\nsamples = 1\nvalue = 18910.0"] ;
837 -> 839 ;
840 [label="new_tests <= 339824.5\nmse = 13070741.65\nsamples = 30\nvalue = 22583.5"] ;
834 -> 840 ;
841 [label="new_tests <= 321573.0\nmse = 58072020.25\nsamples = 2\nvalue = 29668.5"] ;
840 -> 841 ;
842 [label="mse = 0.0\nsamples = 1\nvalue = 22048.0"] ;
841 -> 842 ;
843 [label="mse = 0.0\nsamples = 1\nvalue = 37289.0"] ;
841 -> 843 ;
844 [label="new_tests <= 473250.0\nmse = 6014740.245\nsamples = 28\nvalue = 22077.429"] ;
840 -> 844 ;
845 [label="new_tests <= 428631.5\nmse = 5988143.444\nsamples = 23\nvalue = 21753.348"] ;
844 -> 845 ;
846 [label="new_tests <= 357891.5\nmse = 6579606.359\nsamples = 16\nvalue = 22442.625"] ;
845 -> 846 ;
847 [label="mse = 0.0\nsamples = 1\nvalue = 18873.0"] ;
846 -> 847 ;
848 [label="mse = 6112133.173\nsamples = 15\nvalue = 22680.6"] ;
846 -> 848 ;
849 [label="new_tests <= 437913.5\nmse = 1068107.551\nsamples = 7\nvalue = 20177.857"] ;
845 -> 849 ;
850 [label="mse = 0.0\nsamples = 1\nvalue = 18665.0"] ;
849 -> 850 ;
851 [label="mse = 801093.333\nsamples = 6\nvalue = 20430.0"] ;
849 -> 851 ;
852 [label="new_tests <= 504611.5\nmse = 3431555.76\nsamples = 5\nvalue = 23568.2"] ;
844 -> 852 ;
853 [label="new_tests <= 495638.5\nmse = 2446896.188\nsamples = 4\nvalue = 24175.25"] ;
852 -> 853 ;
854 [label="mse = 2310277.556\nsamples = 3\nvalue = 23687.333"] ;
853 -> 854 ;
855 [label="mse = 0.0\nsamples = 1\nvalue = 25639.0"] ;
853 -> 855 ;
856 [label="mse = 0.0\nsamples = 1\nvalue = 21140.0"] ;
852 -> 856 ;
857 [label="new_tests <= 514949.5\nmse = 23136600.222\nsamples = 3\nvalue = 27533.333"] ;
833 -> 857 ;
858 [label="mse = 0.0\nsamples = 1\nvalue = 34158.0"] ;
857 -> 858 ;
859 [label="new_tests <= 555991.0\nmse = 1790244.0\nsamples = 2\nvalue = 24221.0"] ;
857 -> 859 ;
860 [label="mse = 0.0\nsamples = 1\nvalue = 25559.0"] ;
859 -> 860 ;
861 [label="mse = 0.0\nsamples = 1\nvalue = 22883.0"] ;
859 -> 861 ;
862 [label="new_tests <= 140583.5\nmse = 8424327.453\nsamples = 28\nvalue = 9800.893"] ;
784 -> 862 ;
863 [label="new_tests <= 115441.5\nmse = 2770001.408\nsamples = 14\nvalue = 7596.857"] ;
862 -> 863 ;
864 [label="new_tests <= 108372.0\nmse = 244332.56\nsamples = 5\nvalue = 6145.8"] ;
863 -> 864 ;
865 [label="new_tests <= 103523.0\nmse = 50774.889\nsamples = 3\nvalue = 5769.333"] ;
864 -> 865 ;
866 [label="mse = 0.0\nsamples = 1\nvalue = 6088.0"] ;
865 -> 866 ;
867 [label="new_tests <= 105826.5\nmse = 1.0\nsamples = 2\nvalue = 5610.0"] ;
865 -> 867 ;
868 [label="mse = 0.0\nsamples = 1\nvalue = 5609.0"] ;
867 -> 868 ;
869 [label="mse = 0.0\nsamples = 1\nvalue = 5611.0"] ;
867 -> 869 ;
870 [label="new_tests <= 111993.5\nmse = 3192.25\nsamples = 2\nvalue = 6710.5"] ;
864 -> 870 ;
871 [label="mse = 0.0\nsamples = 1\nvalue = 6767.0"] ;
870 -> 871 ;
872 [label="mse = 0.0\nsamples = 1\nvalue = 6654.0"] ;
870 -> 872 ;
873 [label="new_tests <= 115780.0\nmse = 2353525.111\nsamples = 9\nvalue = 8403.0"] ;
863 -> 873 ;
874 [label="mse = 0.0\nsamples = 1\nvalue = 11502.0"] ;
873 -> 874 ;
875 [label="new_tests <= 123565.0\nmse = 1297181.234\nsamples = 8\nvalue = 8015.625"] ;
873 -> 875 ;
876 [label="new_tests <= 120839.0\nmse = 222920.222\nsamples = 3\nvalue = 6806.333"] ;
875 -> 876 ;
877 [label="new_tests <= 118008.5\nmse = 8010.25\nsamples = 2\nvalue = 6476.5"] ;
876 -> 877 ;
878 [label="mse = 0.0\nsamples = 1\nvalue = 6387.0"] ;
877 -> 878 ;
879 [label="mse = 0.0\nsamples = 1\nvalue = 6566.0"] ;
877 -> 879 ;
880 [label="mse = 0.0\nsamples = 1\nvalue = 7466.0"] ;
876 -> 880 ;
881 [label="new_tests <= 133403.0\nmse = 537846.96\nsamples = 5\nvalue = 8741.2"] ;
875 -> 881 ;
882 [label="new_tests <= 126594.5\nmse = 28842.889\nsamples = 3\nvalue = 8171.667"] ;
881 -> 882 ;
883 [label="mse = 0.0\nsamples = 1\nvalue = 8380.0"] ;
882 -> 883 ;
884 [label="new_tests <= 128314.5\nmse = 10712.25\nsamples = 2\nvalue = 8067.5"] ;
882 -> 884 ;
885 [label="mse = 0.0\nsamples = 1\nvalue = 7964.0"] ;
884 -> 885 ;
886 [label="mse = 0.0\nsamples = 1\nvalue = 8171.0"] ;
884 -> 886 ;
887 [label="new_tests <= 138711.5\nmse = 84972.25\nsamples = 2\nvalue = 9595.5"] ;
881 -> 887 ;
888 [label="mse = 0.0\nsamples = 1\nvalue = 9887.0"] ;
887 -> 888 ;
889 [label="mse = 0.0\nsamples = 1\nvalue = 9304.0"] ;
887 -> 889 ;
890 [label="new_tests <= 164383.5\nmse = 4363106.638\nsamples = 14\nvalue = 12004.929"] ;
862 -> 890 ;
891 [label="new_tests <= 142668.0\nmse = 2121475.89\nsamples = 10\nvalue = 10962.1"] ;
890 -> 891 ;
892 [label="new_tests <= 141875.5\nmse = 64.0\nsamples = 2\nvalue = 9979.0"] ;
891 -> 892 ;
893 [label="mse = 0.0\nsamples = 1\nvalue = 9987.0"] ;
892 -> 893 ;
894 [label="mse = 0.0\nsamples = 1\nvalue = 9971.0"] ;
892 -> 894 ;
895 [label="new_tests <= 143464.0\nmse = 2349802.109\nsamples = 8\nvalue = 11207.875"] ;
891 -> 895 ;
896 [label="mse = 0.0\nsamples = 1\nvalue = 14821.0"] ;
895 -> 896 ;
897 [label="new_tests <= 143699.0\nmse = 554113.061\nsamples = 7\nvalue = 10691.714"] ;
895 -> 897 ;
898 [label="mse = 0.0\nsamples = 1\nvalue = 9851.0"] ;
897 -> 898 ;
899 [label="new_tests <= 151620.0\nmse = 509031.806\nsamples = 6\nvalue = 10831.833"] ;
897 -> 899 ;
900 [label="new_tests <= 150868.5\nmse = 443170.0\nsamples = 5\nvalue = 10999.0"] ;
899 -> 900 ;
901 [label="mse = 283681.25\nsamples = 4\nvalue = 10766.5"] ;
900 -> 901 ;
902 [label="mse = 0.0\nsamples = 1\nvalue = 11929.0"] ;
900 -> 902 ;
903 [label="mse = 0.0\nsamples = 1\nvalue = 9996.0"] ;
899 -> 903 ;
904 [label="new_tests <= 182091.0\nmse = 451633.5\nsamples = 4\nvalue = 14612.0"] ;
890 -> 904 ;
905 [label="mse = 0.0\nsamples = 1\nvalue = 13586.0"] ;
904 -> 905 ;
906 [label="new_tests <= 190299.5\nmse = 134322.0\nsamples = 3\nvalue = 14954.0"] ;
904 -> 906 ;
907 [label="new_tests <= 188546.0\nmse = 43472.25\nsamples = 2\nvalue = 14724.5"] ;
906 -> 907 ;
908 [label="mse = 0.0\nsamples = 1\nvalue = 14933.0"] ;
907 -> 908 ;
909 [label="mse = 0.0\nsamples = 1\nvalue = 14516.0"] ;
907 -> 909 ;
910 [label="mse = 0.0\nsamples = 1\nvalue = 15413.0"] ;
906 -> 910 ;
}
